digraph Tree {
node [shape=box, style="filled", color="black"] ;
0 [label=<Destination &le; 4.5<br/>gini = 0.072<br/>samples = 24255<br/>value = [23356, 809, 75, 11, 2, 2]<br/>class = D>, fillcolor="#e68641"] ;
1 [label=<Converted_Regist &le; 12.5<br/>gini = 0.183<br/>samples = 4643<br/>value = [4177, 395, 56, 11, 2, 2]<br/>class = D>, fillcolor="#e88f4f"] ;
0 -> 1 [labeldistance=2.5, labelangle=45, headlabel="True"] ;
2 [label=<Destination &le; 3.5<br/>gini = 0.332<br/>samples = 1850<br/>value = [1481, 303, 51, 11, 2, 2]<br/>class = D>, fillcolor="#eb9f68"] ;
1 -> 2 ;
3 [label=<Destination &le; 2.5<br/>gini = 0.227<br/>samples = 1386<br/>value = [1208, 159, 15, 3, 1, 0]<br/>class = D>, fillcolor="#e99356"] ;
2 -> 3 ;
4 [label=<Destination &le; 1.5<br/>gini = 0.175<br/>samples = 916<br/>value = [828, 80, 5, 2, 1, 0]<br/>class = D>, fillcolor="#e88e4e"] ;
3 -> 4 ;
5 [label=<Converted_Regist &le; 8.5<br/>gini = 0.12<br/>samples = 452<br/>value = [423, 29, 0, 0, 0, 0]<br/>class = D>, fillcolor="#e78a47"] ;
4 -> 5 ;
6 [label=<Converted_Regist &le; 7.5<br/>gini = 0.166<br/>samples = 153<br/>value = [139, 14, 0, 0, 0, 0]<br/>class = D>, fillcolor="#e88e4d"] ;
5 -> 6 ;
7 [label=<Day &le; 2.5<br/>gini = 0.071<br/>samples = 81<br/>value = [78, 3, 0, 0, 0, 0]<br/>class = D>, fillcolor="#e68641"] ;
6 -> 7 ;
8 [label=<Day &le; 1.5<br/>gini = 0.124<br/>samples = 30<br/>value = [28, 2, 0, 0, 0, 0]<br/>class = D>, fillcolor="#e78a47"] ;
7 -> 8 ;
9 [label=<gini = 0.117<br/>samples = 16<br/>value = [15, 1, 0, 0, 0, 0]<br/>class = D>, fillcolor="#e78946"] ;
8 -> 9 ;
10 [label=<gini = 0.133<br/>samples = 14<br/>value = [13, 1, 0, 0, 0, 0]<br/>class = D>, fillcolor="#e78b48"] ;
8 -> 10 ;
11 [label=<Day &le; 3.5<br/>gini = 0.038<br/>samples = 51<br/>value = [50, 1, 0, 0, 0, 0]<br/>class = D>, fillcolor="#e6843d"] ;
7 -> 11 ;
12 [label=<gini = 0.0<br/>samples = 19<br/>value = [19, 0, 0, 0, 0, 0]<br/>class = D>, fillcolor="#e58139"] ;
11 -> 12 ;
13 [label=<Day &le; 4.5<br/>gini = 0.061<br/>samples = 32<br/>value = [31, 1, 0, 0, 0, 0]<br/>class = D>, fillcolor="#e6853f"] ;
11 -> 13 ;
14 [label=<gini = 0.142<br/>samples = 13<br/>value = [12, 1, 0, 0, 0, 0]<br/>class = D>, fillcolor="#e78c49"] ;
13 -> 14 ;
15 [label=<gini = 0.0<br/>samples = 19<br/>value = [19, 0, 0, 0, 0, 0]<br/>class = D>, fillcolor="#e58139"] ;
13 -> 15 ;
16 [label=<Day &le; 1.5<br/>gini = 0.259<br/>samples = 72<br/>value = [61, 11, 0, 0, 0, 0]<br/>class = D>, fillcolor="#ea985d"] ;
6 -> 16 ;
17 [label=<gini = 0.426<br/>samples = 13<br/>value = [9, 4, 0, 0, 0, 0]<br/>class = D>, fillcolor="#f1b991"] ;
16 -> 17 ;
18 [label=<Day &le; 3.5<br/>gini = 0.209<br/>samples = 59<br/>value = [52, 7, 0, 0, 0, 0]<br/>class = D>, fillcolor="#e89254"] ;
16 -> 18 ;
19 [label=<Day &le; 2.5<br/>gini = 0.067<br/>samples = 29<br/>value = [28, 1, 0, 0, 0, 0]<br/>class = D>, fillcolor="#e68640"] ;
18 -> 19 ;
20 [label=<gini = 0.124<br/>samples = 15<br/>value = [14, 1, 0, 0, 0, 0]<br/>class = D>, fillcolor="#e78a47"] ;
19 -> 20 ;
21 [label=<gini = 0.0<br/>samples = 14<br/>value = [14, 0, 0, 0, 0, 0]<br/>class = D>, fillcolor="#e58139"] ;
19 -> 21 ;
22 [label=<Day &le; 4.5<br/>gini = 0.32<br/>samples = 30<br/>value = [24, 6, 0, 0, 0, 0]<br/>class = D>, fillcolor="#eca06a"] ;
18 -> 22 ;
23 [label=<gini = 0.375<br/>samples = 16<br/>value = [12, 4, 0, 0, 0, 0]<br/>class = D>, fillcolor="#eeab7b"] ;
22 -> 23 ;
24 [label=<gini = 0.245<br/>samples = 14<br/>value = [12, 2, 0, 0, 0, 0]<br/>class = D>, fillcolor="#e9965a"] ;
22 -> 24 ;
25 [label=<Day &le; 1.5<br/>gini = 0.095<br/>samples = 299<br/>value = [284, 15, 0, 0, 0, 0]<br/>class = D>, fillcolor="#e68843"] ;
5 -> 25 ;
26 [label=<Converted_Regist &le; 11.5<br/>gini = 0.032<br/>samples = 61<br/>value = [60, 1, 0, 0, 0, 0]<br/>class = D>, fillcolor="#e5833c"] ;
25 -> 26 ;
27 [label=<gini = 0.0<br/>samples = 45<br/>value = [45, 0, 0, 0, 0, 0]<br/>class = D>, fillcolor="#e58139"] ;
26 -> 27 ;
28 [label=<gini = 0.117<br/>samples = 16<br/>value = [15, 1, 0, 0, 0, 0]<br/>class = D>, fillcolor="#e78946"] ;
26 -> 28 ;
29 [label=<Converted_Regist &le; 10.5<br/>gini = 0.111<br/>samples = 238<br/>value = [224, 14, 0, 0, 0, 0]<br/>class = D>, fillcolor="#e78945"] ;
25 -> 29 ;
30 [label=<Day &le; 3.5<br/>gini = 0.125<br/>samples = 119<br/>value = [111, 8, 0, 0, 0, 0]<br/>class = D>, fillcolor="#e78a47"] ;
29 -> 30 ;
31 [label=<Converted_Regist &le; 9.5<br/>gini = 0.188<br/>samples = 57<br/>value = [51, 6, 0, 0, 0, 0]<br/>class = D>, fillcolor="#e89050"] ;
30 -> 31 ;
32 [label=<Day &le; 2.5<br/>gini = 0.124<br/>samples = 30<br/>value = [28, 2, 0, 0, 0, 0]<br/>class = D>, fillcolor="#e78a47"] ;
31 -> 32 ;
33 [label=<gini = 0.245<br/>samples = 14<br/>value = [12, 2, 0, 0, 0, 0]<br/>class = D>, fillcolor="#e9965a"] ;
32 -> 33 ;
34 [label=<gini = 0.0<br/>samples = 16<br/>value = [16, 0, 0, 0, 0, 0]<br/>class = D>, fillcolor="#e58139"] ;
32 -> 34 ;
35 [label=<Day &le; 2.5<br/>gini = 0.252<br/>samples = 27<br/>value = [23, 4, 0, 0, 0, 0]<br/>class = D>, fillcolor="#ea975b"] ;
31 -> 35 ;
36 [label=<gini = 0.153<br/>samples = 12<br/>value = [11, 1, 0, 0, 0, 0]<br/>class = D>, fillcolor="#e78c4b"] ;
35 -> 36 ;
37 [label=<gini = 0.32<br/>samples = 15<br/>value = [12, 3, 0, 0, 0, 0]<br/>class = D>, fillcolor="#eca06a"] ;
35 -> 37 ;
38 [label=<Day &le; 4.5<br/>gini = 0.062<br/>samples = 62<br/>value = [60, 2, 0, 0, 0, 0]<br/>class = D>, fillcolor="#e68540"] ;
30 -> 38 ;
39 [label=<gini = 0.0<br/>samples = 30<br/>value = [30, 0, 0, 0, 0, 0]<br/>class = D>, fillcolor="#e58139"] ;
38 -> 39 ;
40 [label=<Converted_Regist &le; 9.5<br/>gini = 0.117<br/>samples = 32<br/>value = [30, 2, 0, 0, 0, 0]<br/>class = D>, fillcolor="#e78946"] ;
38 -> 40 ;
41 [label=<gini = 0.105<br/>samples = 18<br/>value = [17, 1, 0, 0, 0, 0]<br/>class = D>, fillcolor="#e78845"] ;
40 -> 41 ;
42 [label=<gini = 0.133<br/>samples = 14<br/>value = [13, 1, 0, 0, 0, 0]<br/>class = D>, fillcolor="#e78b48"] ;
40 -> 42 ;
43 [label=<Day &le; 3.5<br/>gini = 0.096<br/>samples = 119<br/>value = [113, 6, 0, 0, 0, 0]<br/>class = D>, fillcolor="#e68844"] ;
29 -> 43 ;
44 [label=<gini = 0.0<br/>samples = 55<br/>value = [55, 0, 0, 0, 0, 0]<br/>class = D>, fillcolor="#e58139"] ;
43 -> 44 ;
45 [label=<Day &le; 4.5<br/>gini = 0.17<br/>samples = 64<br/>value = [58, 6, 0, 0, 0, 0]<br/>class = D>, fillcolor="#e88e4d"] ;
43 -> 45 ;
46 [label=<Converted_Regist &le; 11.5<br/>gini = 0.213<br/>samples = 33<br/>value = [29, 4, 0, 0, 0, 0]<br/>class = D>, fillcolor="#e99254"] ;
45 -> 46 ;
47 [label=<gini = 0.231<br/>samples = 15<br/>value = [13, 2, 0, 0, 0, 0]<br/>class = D>, fillcolor="#e99457"] ;
46 -> 47 ;
48 [label=<gini = 0.198<br/>samples = 18<br/>value = [16, 2, 0, 0, 0, 0]<br/>class = D>, fillcolor="#e89152"] ;
46 -> 48 ;
49 [label=<Converted_Regist &le; 11.5<br/>gini = 0.121<br/>samples = 31<br/>value = [29, 2, 0, 0, 0, 0]<br/>class = D>, fillcolor="#e78a47"] ;
45 -> 49 ;
50 [label=<gini = 0.124<br/>samples = 15<br/>value = [14, 1, 0, 0, 0, 0]<br/>class = D>, fillcolor="#e78a47"] ;
49 -> 50 ;
51 [label=<gini = 0.117<br/>samples = 16<br/>value = [15, 1, 0, 0, 0, 0]<br/>class = D>, fillcolor="#e78946"] ;
49 -> 51 ;
52 [label=<Day &le; 3.5<br/>gini = 0.226<br/>samples = 464<br/>value = [405, 51, 5, 2, 1, 0]<br/>class = D>, fillcolor="#e99355"] ;
4 -> 52 ;
53 [label=<Converted_Regist &le; 11.5<br/>gini = 0.289<br/>samples = 272<br/>value = [226, 39, 4, 2, 1, 0]<br/>class = D>, fillcolor="#ea9a60"] ;
52 -> 53 ;
54 [label=<Day &le; 1.5<br/>gini = 0.26<br/>samples = 227<br/>value = [193, 30, 1, 2, 1, 0]<br/>class = D>, fillcolor="#e9975b"] ;
53 -> 54 ;
55 [label=<Converted_Regist &le; 8.5<br/>gini = 0.144<br/>samples = 77<br/>value = [71, 6, 0, 0, 0, 0]<br/>class = D>, fillcolor="#e78c4a"] ;
54 -> 55 ;
56 [label=<Converted_Regist &le; 7.5<br/>gini = 0.238<br/>samples = 29<br/>value = [25, 4, 0, 0, 0, 0]<br/>class = D>, fillcolor="#e99559"] ;
55 -> 56 ;
57 [label=<gini = 0.219<br/>samples = 16<br/>value = [14, 2, 0, 0, 0, 0]<br/>class = D>, fillcolor="#e99355"] ;
56 -> 57 ;
58 [label=<gini = 0.26<br/>samples = 13<br/>value = [11, 2, 0, 0, 0, 0]<br/>class = D>, fillcolor="#ea985d"] ;
56 -> 58 ;
59 [label=<Converted_Regist &le; 9.5<br/>gini = 0.08<br/>samples = 48<br/>value = [46, 2, 0, 0, 0, 0]<br/>class = D>, fillcolor="#e68642"] ;
55 -> 59 ;
60 [label=<gini = 0.0<br/>samples = 18<br/>value = [18, 0, 0, 0, 0, 0]<br/>class = D>, fillcolor="#e58139"] ;
59 -> 60 ;
61 [label=<Converted_Regist &le; 10.5<br/>gini = 0.124<br/>samples = 30<br/>value = [28, 2, 0, 0, 0, 0]<br/>class = D>, fillcolor="#e78a47"] ;
59 -> 61 ;
62 [label=<gini = 0.219<br/>samples = 16<br/>value = [14, 2, 0, 0, 0, 0]<br/>class = D>, fillcolor="#e99355"] ;
61 -> 62 ;
63 [label=<gini = 0.0<br/>samples = 14<br/>value = [14, 0, 0, 0, 0, 0]<br/>class = D>, fillcolor="#e58139"] ;
61 -> 63 ;
64 [label=<Converted_Regist &le; 9.5<br/>gini = 0.313<br/>samples = 150<br/>value = [122, 24, 1, 2, 1, 0]<br/>class = D>, fillcolor="#eb9d65"] ;
54 -> 64 ;
65 [label=<Day &le; 2.5<br/>gini = 0.373<br/>samples = 95<br/>value = [73, 18, 1, 2, 1, 0]<br/>class = D>, fillcolor="#eca572"] ;
64 -> 65 ;
66 [label=<Converted_Regist &le; 8.5<br/>gini = 0.453<br/>samples = 45<br/>value = [31, 12, 0, 1, 1, 0]<br/>class = D>, fillcolor="#f0b68d"] ;
65 -> 66 ;
67 [label=<Converted_Regist &le; 7.5<br/>gini = 0.371<br/>samples = 30<br/>value = [23, 6, 0, 1, 0, 0]<br/>class = D>, fillcolor="#eda673"] ;
66 -> 67 ;
68 [label=<gini = 0.444<br/>samples = 15<br/>value = [10, 5, 0, 0, 0, 0]<br/>class = D>, fillcolor="#f2c09c"] ;
67 -> 68 ;
69 [label=<gini = 0.24<br/>samples = 15<br/>value = [13, 1, 0, 1, 0, 0]<br/>class = D>, fillcolor="#e99355"] ;
67 -> 69 ;
70 [label=<gini = 0.551<br/>samples = 15<br/>value = [8, 6, 0, 0, 1, 0]<br/>class = D>, fillcolor="#f9e3d3"] ;
66 -> 70 ;
71 [label=<Converted_Regist &le; 8.5<br/>gini = 0.279<br/>samples = 50<br/>value = [42, 6, 1, 1, 0, 0]<br/>class = D>, fillcolor="#ea985d"] ;
65 -> 71 ;
72 [label=<Converted_Regist &le; 7.5<br/>gini = 0.354<br/>samples = 33<br/>value = [26, 5, 1, 1, 0, 0]<br/>class = D>, fillcolor="#eca06a"] ;
71 -> 72 ;
73 [label=<gini = 0.219<br/>samples = 16<br/>value = [14, 2, 0, 0, 0, 0]<br/>class = D>, fillcolor="#e99355"] ;
72 -> 73 ;
74 [label=<gini = 0.464<br/>samples = 17<br/>value = [12, 3, 1, 1, 0, 0]<br/>class = D>, fillcolor="#eeae80"] ;
72 -> 74 ;
75 [label=<gini = 0.111<br/>samples = 17<br/>value = [16, 1, 0, 0, 0, 0]<br/>class = D>, fillcolor="#e78945"] ;
71 -> 75 ;
76 [label=<Converted_Regist &le; 10.5<br/>gini = 0.194<br/>samples = 55<br/>value = [49, 6, 0, 0, 0, 0]<br/>class = D>, fillcolor="#e89051"] ;
64 -> 76 ;
77 [label=<Day &le; 2.5<br/>gini = 0.074<br/>samples = 26<br/>value = [25, 1, 0, 0, 0, 0]<br/>class = D>, fillcolor="#e68641"] ;
76 -> 77 ;
78 [label=<gini = 0.0<br/>samples = 11<br/>value = [11, 0, 0, 0, 0, 0]<br/>class = D>, fillcolor="#e58139"] ;
77 -> 78 ;
79 [label=<gini = 0.124<br/>samples = 15<br/>value = [14, 1, 0, 0, 0, 0]<br/>class = D>, fillcolor="#e78a47"] ;
77 -> 79 ;
80 [label=<Day &le; 2.5<br/>gini = 0.285<br/>samples = 29<br/>value = [24, 5, 0, 0, 0, 0]<br/>class = D>, fillcolor="#ea9b62"] ;
76 -> 80 ;
81 [label=<gini = 0.26<br/>samples = 13<br/>value = [11, 2, 0, 0, 0, 0]<br/>class = D>, fillcolor="#ea985d"] ;
80 -> 81 ;
82 [label=<gini = 0.305<br/>samples = 16<br/>value = [13, 3, 0, 0, 0, 0]<br/>class = D>, fillcolor="#eb9e67"] ;
80 -> 82 ;
83 [label=<Day &le; 1.5<br/>gini = 0.418<br/>samples = 45<br/>value = [33, 9, 3, 0, 0, 0]<br/>class = D>, fillcolor="#eeab7b"] ;
53 -> 83 ;
84 [label=<gini = 0.531<br/>samples = 16<br/>value = [10, 4, 2, 0, 0, 0]<br/>class = D>, fillcolor="#f2c09c"] ;
83 -> 84 ;
85 [label=<Day &le; 2.5<br/>gini = 0.34<br/>samples = 29<br/>value = [23, 5, 1, 0, 0, 0]<br/>class = D>, fillcolor="#eca06a"] ;
83 -> 85 ;
86 [label=<gini = 0.245<br/>samples = 14<br/>value = [12, 2, 0, 0, 0, 0]<br/>class = D>, fillcolor="#e9965a"] ;
85 -> 86 ;
87 [label=<gini = 0.418<br/>samples = 15<br/>value = [11, 3, 1, 0, 0, 0]<br/>class = D>, fillcolor="#eeab7b"] ;
85 -> 87 ;
88 [label=<Converted_Regist &le; 8.5<br/>gini = 0.127<br/>samples = 192<br/>value = [179, 12, 1, 0, 0, 0]<br/>class = D>, fillcolor="#e78a47"] ;
52 -> 88 ;
89 [label=<Converted_Regist &le; 7.5<br/>gini = 0.209<br/>samples = 59<br/>value = [52, 7, 0, 0, 0, 0]<br/>class = D>, fillcolor="#e89254"] ;
88 -> 89 ;
90 [label=<Day &le; 4.5<br/>gini = 0.18<br/>samples = 30<br/>value = [27, 3, 0, 0, 0, 0]<br/>class = D>, fillcolor="#e88f4f"] ;
89 -> 90 ;
91 [label=<gini = 0.133<br/>samples = 14<br/>value = [13, 1, 0, 0, 0, 0]<br/>class = D>, fillcolor="#e78b48"] ;
90 -> 91 ;
92 [label=<gini = 0.219<br/>samples = 16<br/>value = [14, 2, 0, 0, 0, 0]<br/>class = D>, fillcolor="#e99355"] ;
90 -> 92 ;
93 [label=<Day &le; 4.5<br/>gini = 0.238<br/>samples = 29<br/>value = [25, 4, 0, 0, 0, 0]<br/>class = D>, fillcolor="#e99559"] ;
89 -> 93 ;
94 [label=<gini = 0.245<br/>samples = 14<br/>value = [12, 2, 0, 0, 0, 0]<br/>class = D>, fillcolor="#e9965a"] ;
93 -> 94 ;
95 [label=<gini = 0.231<br/>samples = 15<br/>value = [13, 2, 0, 0, 0, 0]<br/>class = D>, fillcolor="#e99457"] ;
93 -> 95 ;
96 [label=<Converted_Regist &le; 9.5<br/>gini = 0.087<br/>samples = 133<br/>value = [127, 5, 1, 0, 0, 0]<br/>class = D>, fillcolor="#e68742"] ;
88 -> 96 ;
97 [label=<Day &le; 4.5<br/>gini = 0.16<br/>samples = 35<br/>value = [32, 2, 1, 0, 0, 0]<br/>class = D>, fillcolor="#e78c4b"] ;
96 -> 97 ;
98 [label=<gini = 0.124<br/>samples = 15<br/>value = [14, 1, 0, 0, 0, 0]<br/>class = D>, fillcolor="#e78a47"] ;
97 -> 98 ;
99 [label=<gini = 0.185<br/>samples = 20<br/>value = [18, 1, 1, 0, 0, 0]<br/>class = D>, fillcolor="#e88e4e"] ;
97 -> 99 ;
100 [label=<Converted_Regist &le; 11.5<br/>gini = 0.059<br/>samples = 98<br/>value = [95, 3, 0, 0, 0, 0]<br/>class = D>, fillcolor="#e6853f"] ;
96 -> 100 ;
101 [label=<Converted_Regist &le; 10.5<br/>gini = 0.029<br/>samples = 67<br/>value = [66, 1, 0, 0, 0, 0]<br/>class = D>, fillcolor="#e5833c"] ;
100 -> 101 ;
102 [label=<Day &le; 4.5<br/>gini = 0.064<br/>samples = 30<br/>value = [29, 1, 0, 0, 0, 0]<br/>class = D>, fillcolor="#e68540"] ;
101 -> 102 ;
103 [label=<gini = 0.0<br/>samples = 14<br/>value = [14, 0, 0, 0, 0, 0]<br/>class = D>, fillcolor="#e58139"] ;
102 -> 103 ;
104 [label=<gini = 0.117<br/>samples = 16<br/>value = [15, 1, 0, 0, 0, 0]<br/>class = D>, fillcolor="#e78946"] ;
102 -> 104 ;
105 [label=<gini = 0.0<br/>samples = 37<br/>value = [37, 0, 0, 0, 0, 0]<br/>class = D>, fillcolor="#e58139"] ;
101 -> 105 ;
106 [label=<Day &le; 4.5<br/>gini = 0.121<br/>samples = 31<br/>value = [29, 2, 0, 0, 0, 0]<br/>class = D>, fillcolor="#e78a47"] ;
100 -> 106 ;
107 [label=<gini = 0.231<br/>samples = 15<br/>value = [13, 2, 0, 0, 0, 0]<br/>class = D>, fillcolor="#e99457"] ;
106 -> 107 ;
108 [label=<gini = 0.0<br/>samples = 16<br/>value = [16, 0, 0, 0, 0, 0]<br/>class = D>, fillcolor="#e58139"] ;
106 -> 108 ;
109 [label=<Converted_Regist &le; 7.5<br/>gini = 0.318<br/>samples = 470<br/>value = [380, 79, 10, 1, 0, 0]<br/>class = D>, fillcolor="#eb9e67"] ;
3 -> 109 ;
110 [label=<Day &le; 3.5<br/>gini = 0.49<br/>samples = 75<br/>value = [45, 29, 1, 0, 0, 0]<br/>class = D>, fillcolor="#f6d3ba"] ;
109 -> 110 ;
111 [label=<Day &le; 2.5<br/>gini = 0.521<br/>samples = 46<br/>value = [23, 22, 1, 0, 0, 0]<br/>class = D>, fillcolor="#fefaf7"] ;
110 -> 111 ;
112 [label=<Day &le; 1.5<br/>gini = 0.482<br/>samples = 32<br/>value = [19, 13, 0, 0, 0, 0]<br/>class = D>, fillcolor="#f7d7c0"] ;
111 -> 112 ;
113 [label=<gini = 0.494<br/>samples = 18<br/>value = [8, 10, 0, 0, 0, 0]<br/>class = e>, fillcolor="#ebfad7"] ;
112 -> 113 ;
114 [label=<gini = 0.337<br/>samples = 14<br/>value = [11, 3, 0, 0, 0, 0]<br/>class = D>, fillcolor="#eca36f"] ;
112 -> 114 ;
115 [label=<gini = 0.5<br/>samples = 14<br/>value = [4, 9, 1, 0, 0, 0]<br/>class = e>, fillcolor="#cef29c"] ;
111 -> 115 ;
116 [label=<Day &le; 4.5<br/>gini = 0.366<br/>samples = 29<br/>value = [22, 7, 0, 0, 0, 0]<br/>class = D>, fillcolor="#eda978"] ;
110 -> 116 ;
117 [label=<gini = 0.32<br/>samples = 15<br/>value = [12, 3, 0, 0, 0, 0]<br/>class = D>, fillcolor="#eca06a"] ;
116 -> 117 ;
118 [label=<gini = 0.408<br/>samples = 14<br/>value = [10, 4, 0, 0, 0, 0]<br/>class = D>, fillcolor="#efb388"] ;
116 -> 118 ;
119 [label=<Converted_Regist &le; 9.5<br/>gini = 0.264<br/>samples = 395<br/>value = [335, 50, 9, 1, 0, 0]<br/>class = D>, fillcolor="#ea975b"] ;
109 -> 119 ;
120 [label=<Day &le; 1.5<br/>gini = 0.324<br/>samples = 162<br/>value = [131, 23, 7, 1, 0, 0]<br/>class = D>, fillcolor="#eb9d65"] ;
119 -> 120 ;
121 [label=<Converted_Regist &le; 8.5<br/>gini = 0.062<br/>samples = 31<br/>value = [30, 1, 0, 0, 0, 0]<br/>class = D>, fillcolor="#e68540"] ;
120 -> 121 ;
122 [label=<gini = 0.0<br/>samples = 13<br/>value = [13, 0, 0, 0, 0, 0]<br/>class = D>, fillcolor="#e58139"] ;
121 -> 122 ;
123 [label=<gini = 0.105<br/>samples = 18<br/>value = [17, 1, 0, 0, 0, 0]<br/>class = D>, fillcolor="#e78845"] ;
121 -> 123 ;
124 [label=<Day &le; 4.5<br/>gini = 0.374<br/>samples = 131<br/>value = [101, 22, 7, 1, 0, 0]<br/>class = D>, fillcolor="#eca46f"] ;
120 -> 124 ;
125 [label=<Day &le; 2.5<br/>gini = 0.338<br/>samples = 100<br/>value = [80, 14, 5, 1, 0, 0]<br/>class = D>, fillcolor="#eb9e67"] ;
124 -> 125 ;
126 [label=<Converted_Regist &le; 8.5<br/>gini = 0.431<br/>samples = 34<br/>value = [24, 9, 1, 0, 0, 0]<br/>class = D>, fillcolor="#efb388"] ;
125 -> 126 ;
127 [label=<gini = 0.415<br/>samples = 17<br/>value = [12, 5, 0, 0, 0, 0]<br/>class = D>, fillcolor="#f0b58b"] ;
126 -> 127 ;
128 [label=<gini = 0.443<br/>samples = 17<br/>value = [12, 4, 1, 0, 0, 0]<br/>class = D>, fillcolor="#efb185"] ;
126 -> 128 ;
129 [label=<Day &le; 3.5<br/>gini = 0.27<br/>samples = 66<br/>value = [56, 5, 4, 1, 0, 0]<br/>class = D>, fillcolor="#e99659"] ;
125 -> 129 ;
130 [label=<Converted_Regist &le; 8.5<br/>gini = 0.225<br/>samples = 32<br/>value = [28, 1, 3, 0, 0, 0]<br/>class = D>, fillcolor="#e99254"] ;
129 -> 130 ;
131 [label=<gini = 0.439<br/>samples = 14<br/>value = [10, 1, 3, 0, 0, 0]<br/>class = D>, fillcolor="#eeaf81"] ;
130 -> 131 ;
132 [label=<gini = 0.0<br/>samples = 18<br/>value = [18, 0, 0, 0, 0, 0]<br/>class = D>, fillcolor="#e58139"] ;
130 -> 132 ;
133 [label=<Converted_Regist &le; 8.5<br/>gini = 0.306<br/>samples = 34<br/>value = [28, 4, 1, 1, 0, 0]<br/>class = D>, fillcolor="#ea9a61"] ;
129 -> 133 ;
134 [label=<gini = 0.0<br/>samples = 16<br/>value = [16, 0, 0, 0, 0, 0]<br/>class = D>, fillcolor="#e58139"] ;
133 -> 134 ;
135 [label=<gini = 0.5<br/>samples = 18<br/>value = [12, 4, 1, 1, 0, 0]<br/>class = D>, fillcolor="#f0b78e"] ;
133 -> 135 ;
136 [label=<Converted_Regist &le; 8.5<br/>gini = 0.47<br/>samples = 31<br/>value = [21, 8, 2, 0, 0, 0]<br/>class = D>, fillcolor="#f0b88f"] ;
124 -> 136 ;
137 [label=<gini = 0.508<br/>samples = 16<br/>value = [10, 5, 1, 0, 0, 0]<br/>class = D>, fillcolor="#f3c6a5"] ;
136 -> 137 ;
138 [label=<gini = 0.418<br/>samples = 15<br/>value = [11, 3, 1, 0, 0, 0]<br/>class = D>, fillcolor="#eeab7b"] ;
136 -> 138 ;
139 [label=<Converted_Regist &le; 10.5<br/>gini = 0.22<br/>samples = 233<br/>value = [204, 27, 2, 0, 0, 0]<br/>class = D>, fillcolor="#e99355"] ;
119 -> 139 ;
140 [label=<Day &le; 2.5<br/>gini = 0.088<br/>samples = 87<br/>value = [83, 4, 0, 0, 0, 0]<br/>class = D>, fillcolor="#e68743"] ;
139 -> 140 ;
141 [label=<Day &le; 1.5<br/>gini = 0.17<br/>samples = 32<br/>value = [29, 3, 0, 0, 0, 0]<br/>class = D>, fillcolor="#e88e4d"] ;
140 -> 141 ;
142 [label=<gini = 0.133<br/>samples = 14<br/>value = [13, 1, 0, 0, 0, 0]<br/>class = D>, fillcolor="#e78b48"] ;
141 -> 142 ;
143 [label=<gini = 0.198<br/>samples = 18<br/>value = [16, 2, 0, 0, 0, 0]<br/>class = D>, fillcolor="#e89152"] ;
141 -> 143 ;
144 [label=<Day &le; 4.5<br/>gini = 0.036<br/>samples = 55<br/>value = [54, 1, 0, 0, 0, 0]<br/>class = D>, fillcolor="#e5833d"] ;
140 -> 144 ;
145 [label=<gini = 0.0<br/>samples = 37<br/>value = [37, 0, 0, 0, 0, 0]<br/>class = D>, fillcolor="#e58139"] ;
144 -> 145 ;
146 [label=<gini = 0.105<br/>samples = 18<br/>value = [17, 1, 0, 0, 0, 0]<br/>class = D>, fillcolor="#e78845"] ;
144 -> 146 ;
147 [label=<Day &le; 1.5<br/>gini = 0.288<br/>samples = 146<br/>value = [121, 23, 2, 0, 0, 0]<br/>class = D>, fillcolor="#ea9b61"] ;
139 -> 147 ;
148 [label=<Converted_Regist &le; 11.5<br/>gini = 0.431<br/>samples = 34<br/>value = [24, 9, 1, 0, 0, 0]<br/>class = D>, fillcolor="#efb388"] ;
147 -> 148 ;
149 [label=<gini = 0.208<br/>samples = 17<br/>value = [15, 2, 0, 0, 0, 0]<br/>class = D>, fillcolor="#e89253"] ;
148 -> 149 ;
150 [label=<gini = 0.547<br/>samples = 17<br/>value = [9, 7, 1, 0, 0, 0]<br/>class = D>, fillcolor="#fae6d7"] ;
148 -> 150 ;
151 [label=<Day &le; 3.5<br/>gini = 0.234<br/>samples = 112<br/>value = [97, 14, 1, 0, 0, 0]<br/>class = D>, fillcolor="#e99457"] ;
147 -> 151 ;
152 [label=<Converted_Regist &le; 11.5<br/>gini = 0.163<br/>samples = 56<br/>value = [51, 5, 0, 0, 0, 0]<br/>class = D>, fillcolor="#e88d4c"] ;
151 -> 152 ;
153 [label=<Day &le; 2.5<br/>gini = 0.204<br/>samples = 26<br/>value = [23, 3, 0, 0, 0, 0]<br/>class = D>, fillcolor="#e89153"] ;
152 -> 153 ;
154 [label=<gini = 0.245<br/>samples = 14<br/>value = [12, 2, 0, 0, 0, 0]<br/>class = D>, fillcolor="#e9965a"] ;
153 -> 154 ;
155 [label=<gini = 0.153<br/>samples = 12<br/>value = [11, 1, 0, 0, 0, 0]<br/>class = D>, fillcolor="#e78c4b"] ;
153 -> 155 ;
156 [label=<Day &le; 2.5<br/>gini = 0.124<br/>samples = 30<br/>value = [28, 2, 0, 0, 0, 0]<br/>class = D>, fillcolor="#e78a47"] ;
152 -> 156 ;
157 [label=<gini = 0.133<br/>samples = 14<br/>value = [13, 1, 0, 0, 0, 0]<br/>class = D>, fillcolor="#e78b48"] ;
156 -> 157 ;
158 [label=<gini = 0.117<br/>samples = 16<br/>value = [15, 1, 0, 0, 0, 0]<br/>class = D>, fillcolor="#e78946"] ;
156 -> 158 ;
159 [label=<Converted_Regist &le; 11.5<br/>gini = 0.299<br/>samples = 56<br/>value = [46, 9, 1, 0, 0, 0]<br/>class = D>, fillcolor="#eb9c63"] ;
151 -> 159 ;
160 [label=<Day &le; 4.5<br/>gini = 0.302<br/>samples = 27<br/>value = [22, 5, 0, 0, 0, 0]<br/>class = D>, fillcolor="#eb9e66"] ;
159 -> 160 ;
161 [label=<gini = 0.32<br/>samples = 15<br/>value = [12, 3, 0, 0, 0, 0]<br/>class = D>, fillcolor="#eca06a"] ;
160 -> 161 ;
162 [label=<gini = 0.278<br/>samples = 12<br/>value = [10, 2, 0, 0, 0, 0]<br/>class = D>, fillcolor="#ea9a61"] ;
160 -> 162 ;
163 [label=<Day &le; 4.5<br/>gini = 0.295<br/>samples = 29<br/>value = [24, 4, 1, 0, 0, 0]<br/>class = D>, fillcolor="#ea9a61"] ;
159 -> 163 ;
164 [label=<gini = 0.338<br/>samples = 15<br/>value = [12, 2, 1, 0, 0, 0]<br/>class = D>, fillcolor="#eb9e67"] ;
163 -> 164 ;
165 [label=<gini = 0.245<br/>samples = 14<br/>value = [12, 2, 0, 0, 0, 0]<br/>class = D>, fillcolor="#e9965a"] ;
163 -> 165 ;
166 [label=<Converted_Regist &le; 9.5<br/>gini = 0.551<br/>samples = 464<br/>value = [273, 144, 36, 8, 1, 2]<br/>class = D>, fillcolor="#f5ccaf"] ;
2 -> 166 ;
167 [label=<Converted_Regist &le; 7.5<br/>gini = 0.616<br/>samples = 235<br/>value = [112, 90, 22, 8, 1, 2]<br/>class = D>, fillcolor="#fbece1"] ;
166 -> 167 ;
168 [label=<Day &le; 3.5<br/>gini = 0.457<br/>samples = 76<br/>value = [51, 23, 2, 0, 0, 0]<br/>class = D>, fillcolor="#f1bc96"] ;
167 -> 168 ;
169 [label=<Day &le; 1.5<br/>gini = 0.526<br/>samples = 46<br/>value = [26, 18, 2, 0, 0, 0]<br/>class = D>, fillcolor="#f8dbc6"] ;
168 -> 169 ;
170 [label=<gini = 0.26<br/>samples = 13<br/>value = [11, 2, 0, 0, 0, 0]<br/>class = D>, fillcolor="#ea985d"] ;
169 -> 170 ;
171 [label=<Day &le; 2.5<br/>gini = 0.555<br/>samples = 33<br/>value = [15, 16, 2, 0, 0, 0]<br/>class = e>, fillcolor="#fafef4"] ;
169 -> 171 ;
172 [label=<gini = 0.554<br/>samples = 17<br/>value = [8, 8, 1, 0, 0, 0]<br/>class = D>, fillcolor="#ffffff"] ;
171 -> 172 ;
173 [label=<gini = 0.555<br/>samples = 16<br/>value = [7, 8, 1, 0, 0, 0]<br/>class = e>, fillcolor="#f4fce9"] ;
171 -> 173 ;
174 [label=<Day &le; 4.5<br/>gini = 0.278<br/>samples = 30<br/>value = [25, 5, 0, 0, 0, 0]<br/>class = D>, fillcolor="#ea9a61"] ;
168 -> 174 ;
175 [label=<gini = 0.0<br/>samples = 15<br/>value = [15, 0, 0, 0, 0, 0]<br/>class = D>, fillcolor="#e58139"] ;
174 -> 175 ;
176 [label=<gini = 0.444<br/>samples = 15<br/>value = [10, 5, 0, 0, 0, 0]<br/>class = D>, fillcolor="#f2c09c"] ;
174 -> 176 ;
177 [label=<Day &le; 4.5<br/>gini = 0.657<br/>samples = 159<br/>value = [61, 67, 20, 8, 1, 2]<br/>class = e>, fillcolor="#f9fdf3"] ;
167 -> 177 ;
178 [label=<Day &le; 3.5<br/>gini = 0.627<br/>samples = 128<br/>value = [54, 54, 16, 4, 0, 0]<br/>class = D>, fillcolor="#ffffff"] ;
177 -> 178 ;
179 [label=<Day &le; 1.5<br/>gini = 0.643<br/>samples = 92<br/>value = [36, 39, 14, 3, 0, 0]<br/>class = e>, fillcolor="#fafef4"] ;
178 -> 179 ;
180 [label=<Converted_Regist &le; 8.5<br/>gini = 0.627<br/>samples = 32<br/>value = [15, 12, 3, 2, 0, 0]<br/>class = D>, fillcolor="#fbece1"] ;
179 -> 180 ;
181 [label=<gini = 0.672<br/>samples = 16<br/>value = [7, 5, 3, 1, 0, 0]<br/>class = D>, fillcolor="#fae8db"] ;
180 -> 181 ;
182 [label=<gini = 0.555<br/>samples = 16<br/>value = [8, 7, 0, 1, 0, 0]<br/>class = D>, fillcolor="#fcf1e9"] ;
180 -> 182 ;
183 [label=<Converted_Regist &le; 8.5<br/>gini = 0.641<br/>samples = 60<br/>value = [21, 27, 11, 1, 0, 0]<br/>class = e>, fillcolor="#f0fbe1"] ;
179 -> 183 ;
184 [label=<Day &le; 2.5<br/>gini = 0.639<br/>samples = 33<br/>value = [10, 16, 6, 1, 0, 0]<br/>class = e>, fillcolor="#e5f8cb"] ;
183 -> 184 ;
185 [label=<gini = 0.633<br/>samples = 16<br/>value = [5, 8, 2, 1, 0, 0]<br/>class = e>, fillcolor="#e4f8c9"] ;
184 -> 185 ;
186 [label=<gini = 0.637<br/>samples = 17<br/>value = [5, 8, 4, 0, 0, 0]<br/>class = e>, fillcolor="#e6f8ce"] ;
184 -> 186 ;
187 [label=<Day &le; 2.5<br/>gini = 0.634<br/>samples = 27<br/>value = [11, 11, 5, 0, 0, 0]<br/>class = D>, fillcolor="#ffffff"] ;
183 -> 187 ;
188 [label=<gini = 0.615<br/>samples = 13<br/>value = [5, 6, 2, 0, 0, 0]<br/>class = e>, fillcolor="#f3fce6"] ;
187 -> 188 ;
189 [label=<gini = 0.643<br/>samples = 14<br/>value = [6, 5, 3, 0, 0, 0]<br/>class = D>, fillcolor="#fcf1e9"] ;
187 -> 189 ;
190 [label=<Converted_Regist &le; 8.5<br/>gini = 0.573<br/>samples = 36<br/>value = [18, 15, 2, 1, 0, 0]<br/>class = D>, fillcolor="#fbede3"] ;
178 -> 190 ;
191 [label=<gini = 0.593<br/>samples = 18<br/>value = [9, 7, 1, 1, 0, 0]<br/>class = D>, fillcolor="#fae8db"] ;
190 -> 191 ;
192 [label=<gini = 0.549<br/>samples = 18<br/>value = [9, 8, 1, 0, 0, 0]<br/>class = D>, fillcolor="#fcf2eb"] ;
190 -> 192 ;
193 [label=<Converted_Regist &le; 8.5<br/>gini = 0.735<br/>samples = 31<br/>value = [7, 13, 4, 4, 1, 2]<br/>class = e>, fillcolor="#e6f8ce"] ;
177 -> 193 ;
194 [label=<gini = 0.698<br/>samples = 13<br/>value = [3, 6, 0, 1, 1, 2]<br/>class = e>, fillcolor="#e2f7c4"] ;
193 -> 194 ;
195 [label=<gini = 0.722<br/>samples = 18<br/>value = [4, 7, 4, 3, 0, 0]<br/>class = e>, fillcolor="#eaf9d5"] ;
193 -> 195 ;
196 [label=<Converted_Regist &le; 11.5<br/>gini = 0.446<br/>samples = 229<br/>value = [161, 54, 14, 0, 0, 0]<br/>class = D>, fillcolor="#efb286"] ;
166 -> 196 ;
197 [label=<Day &le; 3.5<br/>gini = 0.426<br/>samples = 155<br/>value = [111, 38, 6, 0, 0, 0]<br/>class = D>, fillcolor="#efb083"] ;
196 -> 197 ;
198 [label=<Day &le; 1.5<br/>gini = 0.405<br/>samples = 92<br/>value = [66, 26, 0, 0, 0, 0]<br/>class = D>, fillcolor="#efb387"] ;
197 -> 198 ;
199 [label=<Converted_Regist &le; 10.5<br/>gini = 0.327<br/>samples = 34<br/>value = [27, 7, 0, 0, 0, 0]<br/>class = D>, fillcolor="#eca26c"] ;
198 -> 199 ;
200 [label=<gini = 0.291<br/>samples = 17<br/>value = [14, 3, 0, 0, 0, 0]<br/>class = D>, fillcolor="#eb9c63"] ;
199 -> 200 ;
201 [label=<gini = 0.36<br/>samples = 17<br/>value = [13, 4, 0, 0, 0, 0]<br/>class = D>, fillcolor="#eda876"] ;
199 -> 201 ;
202 [label=<Converted_Regist &le; 10.5<br/>gini = 0.441<br/>samples = 58<br/>value = [39, 19, 0, 0, 0, 0]<br/>class = D>, fillcolor="#f2be99"] ;
198 -> 202 ;
203 [label=<Day &le; 2.5<br/>gini = 0.42<br/>samples = 30<br/>value = [21, 9, 0, 0, 0, 0]<br/>class = D>, fillcolor="#f0b78e"] ;
202 -> 203 ;
204 [label=<gini = 0.408<br/>samples = 14<br/>value = [10, 4, 0, 0, 0, 0]<br/>class = D>, fillcolor="#efb388"] ;
203 -> 204 ;
205 [label=<gini = 0.43<br/>samples = 16<br/>value = [11, 5, 0, 0, 0, 0]<br/>class = D>, fillcolor="#f1ba93"] ;
203 -> 205 ;
206 [label=<Day &le; 2.5<br/>gini = 0.459<br/>samples = 28<br/>value = [18, 10, 0, 0, 0, 0]<br/>class = D>, fillcolor="#f3c7a7"] ;
202 -> 206 ;
207 [label=<gini = 0.459<br/>samples = 14<br/>value = [9, 5, 0, 0, 0, 0]<br/>class = D>, fillcolor="#f3c7a7"] ;
206 -> 207 ;
208 [label=<gini = 0.459<br/>samples = 14<br/>value = [9, 5, 0, 0, 0, 0]<br/>class = D>, fillcolor="#f3c7a7"] ;
206 -> 208 ;
209 [label=<Converted_Regist &le; 10.5<br/>gini = 0.444<br/>samples = 63<br/>value = [45, 12, 6, 0, 0, 0]<br/>class = D>, fillcolor="#eead7f"] ;
197 -> 209 ;
210 [label=<Day &le; 4.5<br/>gini = 0.519<br/>samples = 34<br/>value = [22, 6, 6, 0, 0, 0]<br/>class = D>, fillcolor="#f0b78e"] ;
209 -> 210 ;
211 [label=<gini = 0.567<br/>samples = 17<br/>value = [10, 3, 4, 0, 0, 0]<br/>class = D>, fillcolor="#f3c5a4"] ;
210 -> 211 ;
212 [label=<gini = 0.457<br/>samples = 17<br/>value = [12, 3, 2, 0, 0, 0]<br/>class = D>, fillcolor="#eeae80"] ;
210 -> 212 ;
213 [label=<Day &le; 4.5<br/>gini = 0.328<br/>samples = 29<br/>value = [23, 6, 0, 0, 0, 0]<br/>class = D>, fillcolor="#eca26d"] ;
209 -> 213 ;
214 [label=<gini = 0.337<br/>samples = 14<br/>value = [11, 3, 0, 0, 0, 0]<br/>class = D>, fillcolor="#eca36f"] ;
213 -> 214 ;
215 [label=<gini = 0.32<br/>samples = 15<br/>value = [12, 3, 0, 0, 0, 0]<br/>class = D>, fillcolor="#eca06a"] ;
213 -> 215 ;
216 [label=<Day &le; 2.5<br/>gini = 0.485<br/>samples = 74<br/>value = [50, 16, 8, 0, 0, 0]<br/>class = D>, fillcolor="#f0b58b"] ;
196 -> 216 ;
217 [label=<Day &le; 1.5<br/>gini = 0.424<br/>samples = 30<br/>value = [22, 5, 3, 0, 0, 0]<br/>class = D>, fillcolor="#eda978"] ;
216 -> 217 ;
218 [label=<gini = 0.5<br/>samples = 14<br/>value = [9, 4, 1, 0, 0, 0]<br/>class = D>, fillcolor="#f2c09c"] ;
217 -> 218 ;
219 [label=<gini = 0.32<br/>samples = 16<br/>value = [13, 1, 2, 0, 0, 0]<br/>class = D>, fillcolor="#eb9c63"] ;
217 -> 219 ;
220 [label=<Day &le; 3.5<br/>gini = 0.52<br/>samples = 44<br/>value = [28, 11, 5, 0, 0, 0]<br/>class = D>, fillcolor="#f2be99"] ;
216 -> 220 ;
221 [label=<gini = 0.571<br/>samples = 14<br/>value = [8, 4, 2, 0, 0, 0]<br/>class = D>, fillcolor="#f5cdb0"] ;
220 -> 221 ;
222 [label=<Day &le; 4.5<br/>gini = 0.491<br/>samples = 30<br/>value = [20, 7, 3, 0, 0, 0]<br/>class = D>, fillcolor="#f0b88f"] ;
220 -> 222 ;
223 [label=<gini = 0.498<br/>samples = 15<br/>value = [10, 3, 2, 0, 0, 0]<br/>class = D>, fillcolor="#f0b68c"] ;
222 -> 223 ;
224 [label=<gini = 0.48<br/>samples = 15<br/>value = [10, 4, 1, 0, 0, 0]<br/>class = D>, fillcolor="#f1ba93"] ;
222 -> 224 ;
225 [label=<Converted_Regist &le; 17.5<br/>gini = 0.067<br/>samples = 2793<br/>value = [2696, 92, 5, 0, 0, 0]<br/>class = D>, fillcolor="#e68640"] ;
1 -> 225 ;
226 [label=<Destination &le; 3.5<br/>gini = 0.11<br/>samples = 1549<br/>value = [1459, 85, 5, 0, 0, 0]<br/>class = D>, fillcolor="#e78945"] ;
225 -> 226 ;
227 [label=<Day &le; 3.5<br/>gini = 0.084<br/>samples = 1163<br/>value = [1112, 49, 2, 0, 0, 0]<br/>class = D>, fillcolor="#e68742"] ;
226 -> 227 ;
228 [label=<Converted_Regist &le; 14.5<br/>gini = 0.066<br/>samples = 676<br/>value = [653, 22, 1, 0, 0, 0]<br/>class = D>, fillcolor="#e68540"] ;
227 -> 228 ;
229 [label=<Day &le; 1.5<br/>gini = 0.043<br/>samples = 272<br/>value = [266, 5, 1, 0, 0, 0]<br/>class = D>, fillcolor="#e6843d"] ;
228 -> 229 ;
230 [label=<Destination &le; 1.5<br/>gini = 0.023<br/>samples = 85<br/>value = [84, 1, 0, 0, 0, 0]<br/>class = D>, fillcolor="#e5823b"] ;
229 -> 230 ;
231 [label=<Converted_Regist &le; 13.5<br/>gini = 0.069<br/>samples = 28<br/>value = [27, 1, 0, 0, 0, 0]<br/>class = D>, fillcolor="#e68640"] ;
230 -> 231 ;
232 [label=<gini = 0.124<br/>samples = 15<br/>value = [14, 1, 0, 0, 0, 0]<br/>class = D>, fillcolor="#e78a47"] ;
231 -> 232 ;
233 [label=<gini = 0.0<br/>samples = 13<br/>value = [13, 0, 0, 0, 0, 0]<br/>class = D>, fillcolor="#e58139"] ;
231 -> 233 ;
234 [label=<gini = 0.0<br/>samples = 57<br/>value = [57, 0, 0, 0, 0, 0]<br/>class = D>, fillcolor="#e58139"] ;
230 -> 234 ;
235 [label=<Destination &le; 2.5<br/>gini = 0.052<br/>samples = 187<br/>value = [182, 4, 1, 0, 0, 0]<br/>class = D>, fillcolor="#e6843e"] ;
229 -> 235 ;
236 [label=<Day &le; 2.5<br/>gini = 0.033<br/>samples = 120<br/>value = [118, 2, 0, 0, 0, 0]<br/>class = D>, fillcolor="#e5833c"] ;
235 -> 236 ;
237 [label=<Converted_Regist &le; 13.5<br/>gini = 0.034<br/>samples = 57<br/>value = [56, 1, 0, 0, 0, 0]<br/>class = D>, fillcolor="#e5833d"] ;
236 -> 237 ;
238 [label=<Destination &le; 1.5<br/>gini = 0.074<br/>samples = 26<br/>value = [25, 1, 0, 0, 0, 0]<br/>class = D>, fillcolor="#e68641"] ;
237 -> 238 ;
239 [label=<gini = 0.0<br/>samples = 10<br/>value = [10, 0, 0, 0, 0, 0]<br/>class = D>, fillcolor="#e58139"] ;
238 -> 239 ;
240 [label=<gini = 0.117<br/>samples = 16<br/>value = [15, 1, 0, 0, 0, 0]<br/>class = D>, fillcolor="#e78946"] ;
238 -> 240 ;
241 [label=<gini = 0.0<br/>samples = 31<br/>value = [31, 0, 0, 0, 0, 0]<br/>class = D>, fillcolor="#e58139"] ;
237 -> 241 ;
242 [label=<Converted_Regist &le; 13.5<br/>gini = 0.031<br/>samples = 63<br/>value = [62, 1, 0, 0, 0, 0]<br/>class = D>, fillcolor="#e5833c"] ;
236 -> 242 ;
243 [label=<gini = 0.0<br/>samples = 33<br/>value = [33, 0, 0, 0, 0, 0]<br/>class = D>, fillcolor="#e58139"] ;
242 -> 243 ;
244 [label=<Destination &le; 1.5<br/>gini = 0.064<br/>samples = 30<br/>value = [29, 1, 0, 0, 0, 0]<br/>class = D>, fillcolor="#e68540"] ;
242 -> 244 ;
245 [label=<gini = 0.105<br/>samples = 18<br/>value = [17, 1, 0, 0, 0, 0]<br/>class = D>, fillcolor="#e78845"] ;
244 -> 245 ;
246 [label=<gini = 0.0<br/>samples = 12<br/>value = [12, 0, 0, 0, 0, 0]<br/>class = D>, fillcolor="#e58139"] ;
244 -> 246 ;
247 [label=<Converted_Regist &le; 13.5<br/>gini = 0.086<br/>samples = 67<br/>value = [64, 2, 1, 0, 0, 0]<br/>class = D>, fillcolor="#e68742"] ;
235 -> 247 ;
248 [label=<Day &le; 2.5<br/>gini = 0.061<br/>samples = 32<br/>value = [31, 0, 1, 0, 0, 0]<br/>class = D>, fillcolor="#e6853f"] ;
247 -> 248 ;
249 [label=<gini = 0.0<br/>samples = 14<br/>value = [14, 0, 0, 0, 0, 0]<br/>class = D>, fillcolor="#e58139"] ;
248 -> 249 ;
250 [label=<gini = 0.105<br/>samples = 18<br/>value = [17, 0, 1, 0, 0, 0]<br/>class = D>, fillcolor="#e78845"] ;
248 -> 250 ;
251 [label=<Day &le; 2.5<br/>gini = 0.108<br/>samples = 35<br/>value = [33, 2, 0, 0, 0, 0]<br/>class = D>, fillcolor="#e78945"] ;
247 -> 251 ;
252 [label=<gini = 0.111<br/>samples = 17<br/>value = [16, 1, 0, 0, 0, 0]<br/>class = D>, fillcolor="#e78945"] ;
251 -> 252 ;
253 [label=<gini = 0.105<br/>samples = 18<br/>value = [17, 1, 0, 0, 0, 0]<br/>class = D>, fillcolor="#e78845"] ;
251 -> 253 ;
254 [label=<Destination &le; 2.5<br/>gini = 0.081<br/>samples = 404<br/>value = [387, 17, 0, 0, 0, 0]<br/>class = D>, fillcolor="#e68742"] ;
228 -> 254 ;
255 [label=<Destination &le; 1.5<br/>gini = 0.062<br/>samples = 279<br/>value = [270, 9, 0, 0, 0, 0]<br/>class = D>, fillcolor="#e68540"] ;
254 -> 255 ;
256 [label=<Converted_Regist &le; 16.5<br/>gini = 0.086<br/>samples = 134<br/>value = [128, 6, 0, 0, 0, 0]<br/>class = D>, fillcolor="#e68742"] ;
255 -> 256 ;
257 [label=<Converted_Regist &le; 15.5<br/>gini = 0.064<br/>samples = 91<br/>value = [88, 3, 0, 0, 0, 0]<br/>class = D>, fillcolor="#e68540"] ;
256 -> 257 ;
258 [label=<Day &le; 1.5<br/>gini = 0.124<br/>samples = 45<br/>value = [42, 3, 0, 0, 0, 0]<br/>class = D>, fillcolor="#e78a47"] ;
257 -> 258 ;
259 [label=<gini = 0.124<br/>samples = 15<br/>value = [14, 1, 0, 0, 0, 0]<br/>class = D>, fillcolor="#e78a47"] ;
258 -> 259 ;
260 [label=<Day &le; 2.5<br/>gini = 0.124<br/>samples = 30<br/>value = [28, 2, 0, 0, 0, 0]<br/>class = D>, fillcolor="#e78a47"] ;
258 -> 260 ;
261 [label=<gini = 0.124<br/>samples = 15<br/>value = [14, 1, 0, 0, 0, 0]<br/>class = D>, fillcolor="#e78a47"] ;
260 -> 261 ;
262 [label=<gini = 0.124<br/>samples = 15<br/>value = [14, 1, 0, 0, 0, 0]<br/>class = D>, fillcolor="#e78a47"] ;
260 -> 262 ;
263 [label=<gini = 0.0<br/>samples = 46<br/>value = [46, 0, 0, 0, 0, 0]<br/>class = D>, fillcolor="#e58139"] ;
257 -> 263 ;
264 [label=<Day &le; 2.5<br/>gini = 0.13<br/>samples = 43<br/>value = [40, 3, 0, 0, 0, 0]<br/>class = D>, fillcolor="#e78a48"] ;
256 -> 264 ;
265 [label=<Day &le; 1.5<br/>gini = 0.185<br/>samples = 29<br/>value = [26, 3, 0, 0, 0, 0]<br/>class = D>, fillcolor="#e89050"] ;
264 -> 265 ;
266 [label=<gini = 0.219<br/>samples = 16<br/>value = [14, 2, 0, 0, 0, 0]<br/>class = D>, fillcolor="#e99355"] ;
265 -> 266 ;
267 [label=<gini = 0.142<br/>samples = 13<br/>value = [12, 1, 0, 0, 0, 0]<br/>class = D>, fillcolor="#e78c49"] ;
265 -> 267 ;
268 [label=<gini = 0.0<br/>samples = 14<br/>value = [14, 0, 0, 0, 0, 0]<br/>class = D>, fillcolor="#e58139"] ;
264 -> 268 ;
269 [label=<Day &le; 1.5<br/>gini = 0.041<br/>samples = 145<br/>value = [142, 3, 0, 0, 0, 0]<br/>class = D>, fillcolor="#e6843d"] ;
255 -> 269 ;
270 [label=<gini = 0.0<br/>samples = 48<br/>value = [48, 0, 0, 0, 0, 0]<br/>class = D>, fillcolor="#e58139"] ;
269 -> 270 ;
271 [label=<Converted_Regist &le; 16.5<br/>gini = 0.06<br/>samples = 97<br/>value = [94, 3, 0, 0, 0, 0]<br/>class = D>, fillcolor="#e6853f"] ;
269 -> 271 ;
272 [label=<Converted_Regist &le; 15.5<br/>gini = 0.083<br/>samples = 69<br/>value = [66, 3, 0, 0, 0, 0]<br/>class = D>, fillcolor="#e68742"] ;
271 -> 272 ;
273 [label=<Day &le; 2.5<br/>gini = 0.054<br/>samples = 36<br/>value = [35, 1, 0, 0, 0, 0]<br/>class = D>, fillcolor="#e6853f"] ;
272 -> 273 ;
274 [label=<gini = 0.0<br/>samples = 18<br/>value = [18, 0, 0, 0, 0, 0]<br/>class = D>, fillcolor="#e58139"] ;
273 -> 274 ;
275 [label=<gini = 0.105<br/>samples = 18<br/>value = [17, 1, 0, 0, 0, 0]<br/>class = D>, fillcolor="#e78845"] ;
273 -> 275 ;
276 [label=<Day &le; 2.5<br/>gini = 0.114<br/>samples = 33<br/>value = [31, 2, 0, 0, 0, 0]<br/>class = D>, fillcolor="#e78946"] ;
272 -> 276 ;
277 [label=<gini = 0.117<br/>samples = 16<br/>value = [15, 1, 0, 0, 0, 0]<br/>class = D>, fillcolor="#e78946"] ;
276 -> 277 ;
278 [label=<gini = 0.111<br/>samples = 17<br/>value = [16, 1, 0, 0, 0, 0]<br/>class = D>, fillcolor="#e78945"] ;
276 -> 278 ;
279 [label=<gini = 0.0<br/>samples = 28<br/>value = [28, 0, 0, 0, 0, 0]<br/>class = D>, fillcolor="#e58139"] ;
271 -> 279 ;
280 [label=<Day &le; 1.5<br/>gini = 0.12<br/>samples = 125<br/>value = [117, 8, 0, 0, 0, 0]<br/>class = D>, fillcolor="#e78a47"] ;
254 -> 280 ;
281 [label=<Converted_Regist &le; 15.5<br/>gini = 0.062<br/>samples = 31<br/>value = [30, 1, 0, 0, 0, 0]<br/>class = D>, fillcolor="#e68540"] ;
280 -> 281 ;
282 [label=<gini = 0.0<br/>samples = 10<br/>value = [10, 0, 0, 0, 0, 0]<br/>class = D>, fillcolor="#e58139"] ;
281 -> 282 ;
283 [label=<Converted_Regist &le; 16.5<br/>gini = 0.091<br/>samples = 21<br/>value = [20, 1, 0, 0, 0, 0]<br/>class = D>, fillcolor="#e68743"] ;
281 -> 283 ;
284 [label=<gini = 0.165<br/>samples = 11<br/>value = [10, 1, 0, 0, 0, 0]<br/>class = D>, fillcolor="#e88e4d"] ;
283 -> 284 ;
285 [label=<gini = 0.0<br/>samples = 10<br/>value = [10, 0, 0, 0, 0, 0]<br/>class = D>, fillcolor="#e58139"] ;
283 -> 285 ;
286 [label=<Converted_Regist &le; 16.5<br/>gini = 0.138<br/>samples = 94<br/>value = [87, 7, 0, 0, 0, 0]<br/>class = D>, fillcolor="#e78b49"] ;
280 -> 286 ;
287 [label=<Converted_Regist &le; 15.5<br/>gini = 0.119<br/>samples = 63<br/>value = [59, 4, 0, 0, 0, 0]<br/>class = D>, fillcolor="#e78a46"] ;
286 -> 287 ;
288 [label=<Day &le; 2.5<br/>gini = 0.128<br/>samples = 29<br/>value = [27, 2, 0, 0, 0, 0]<br/>class = D>, fillcolor="#e78a48"] ;
287 -> 288 ;
289 [label=<gini = 0.124<br/>samples = 15<br/>value = [14, 1, 0, 0, 0, 0]<br/>class = D>, fillcolor="#e78a47"] ;
288 -> 289 ;
290 [label=<gini = 0.133<br/>samples = 14<br/>value = [13, 1, 0, 0, 0, 0]<br/>class = D>, fillcolor="#e78b48"] ;
288 -> 290 ;
291 [label=<Day &le; 2.5<br/>gini = 0.111<br/>samples = 34<br/>value = [32, 2, 0, 0, 0, 0]<br/>class = D>, fillcolor="#e78945"] ;
287 -> 291 ;
292 [label=<gini = 0.124<br/>samples = 15<br/>value = [14, 1, 0, 0, 0, 0]<br/>class = D>, fillcolor="#e78a47"] ;
291 -> 292 ;
293 [label=<gini = 0.1<br/>samples = 19<br/>value = [18, 1, 0, 0, 0, 0]<br/>class = D>, fillcolor="#e68844"] ;
291 -> 293 ;
294 [label=<Day &le; 2.5<br/>gini = 0.175<br/>samples = 31<br/>value = [28, 3, 0, 0, 0, 0]<br/>class = D>, fillcolor="#e88e4e"] ;
286 -> 294 ;
295 [label=<gini = 0.188<br/>samples = 19<br/>value = [17, 2, 0, 0, 0, 0]<br/>class = D>, fillcolor="#e89050"] ;
294 -> 295 ;
296 [label=<gini = 0.153<br/>samples = 12<br/>value = [11, 1, 0, 0, 0, 0]<br/>class = D>, fillcolor="#e78c4b"] ;
294 -> 296 ;
297 [label=<Converted_Regist &le; 16.5<br/>gini = 0.109<br/>samples = 487<br/>value = [459, 27, 1, 0, 0, 0]<br/>class = D>, fillcolor="#e78945"] ;
227 -> 297 ;
298 [label=<Destination &le; 1.5<br/>gini = 0.124<br/>samples = 394<br/>value = [368, 25, 1, 0, 0, 0]<br/>class = D>, fillcolor="#e78a47"] ;
297 -> 298 ;
299 [label=<Converted_Regist &le; 15.5<br/>gini = 0.074<br/>samples = 130<br/>value = [125, 4, 1, 0, 0, 0]<br/>class = D>, fillcolor="#e68641"] ;
298 -> 299 ;
300 [label=<Day &le; 4.5<br/>gini = 0.04<br/>samples = 98<br/>value = [96, 2, 0, 0, 0, 0]<br/>class = D>, fillcolor="#e6843d"] ;
299 -> 300 ;
301 [label=<Converted_Regist &le; 14.5<br/>gini = 0.077<br/>samples = 50<br/>value = [48, 2, 0, 0, 0, 0]<br/>class = D>, fillcolor="#e68641"] ;
300 -> 301 ;
302 [label=<Converted_Regist &le; 13.5<br/>gini = 0.059<br/>samples = 33<br/>value = [32, 1, 0, 0, 0, 0]<br/>class = D>, fillcolor="#e6853f"] ;
301 -> 302 ;
303 [label=<gini = 0.105<br/>samples = 18<br/>value = [17, 1, 0, 0, 0, 0]<br/>class = D>, fillcolor="#e78845"] ;
302 -> 303 ;
304 [label=<gini = 0.0<br/>samples = 15<br/>value = [15, 0, 0, 0, 0, 0]<br/>class = D>, fillcolor="#e58139"] ;
302 -> 304 ;
305 [label=<gini = 0.111<br/>samples = 17<br/>value = [16, 1, 0, 0, 0, 0]<br/>class = D>, fillcolor="#e78945"] ;
301 -> 305 ;
306 [label=<gini = 0.0<br/>samples = 48<br/>value = [48, 0, 0, 0, 0, 0]<br/>class = D>, fillcolor="#e58139"] ;
300 -> 306 ;
307 [label=<Day &le; 4.5<br/>gini = 0.174<br/>samples = 32<br/>value = [29, 2, 1, 0, 0, 0]<br/>class = D>, fillcolor="#e88e4d"] ;
299 -> 307 ;
308 [label=<gini = 0.24<br/>samples = 15<br/>value = [13, 1, 1, 0, 0, 0]<br/>class = D>, fillcolor="#e99355"] ;
307 -> 308 ;
309 [label=<gini = 0.111<br/>samples = 17<br/>value = [16, 1, 0, 0, 0, 0]<br/>class = D>, fillcolor="#e78945"] ;
307 -> 309 ;
310 [label=<Converted_Regist &le; 13.5<br/>gini = 0.146<br/>samples = 264<br/>value = [243, 21, 0, 0, 0, 0]<br/>class = D>, fillcolor="#e78c4a"] ;
298 -> 310 ;
311 [label=<Day &le; 4.5<br/>gini = 0.21<br/>samples = 67<br/>value = [59, 8, 0, 0, 0, 0]<br/>class = D>, fillcolor="#e99254"] ;
310 -> 311 ;
312 [label=<Destination &le; 2.5<br/>gini = 0.257<br/>samples = 33<br/>value = [28, 5, 0, 0, 0, 0]<br/>class = D>, fillcolor="#ea985c"] ;
311 -> 312 ;
313 [label=<gini = 0.278<br/>samples = 18<br/>value = [15, 3, 0, 0, 0, 0]<br/>class = D>, fillcolor="#ea9a61"] ;
312 -> 313 ;
314 [label=<gini = 0.231<br/>samples = 15<br/>value = [13, 2, 0, 0, 0, 0]<br/>class = D>, fillcolor="#e99457"] ;
312 -> 314 ;
315 [label=<Destination &le; 2.5<br/>gini = 0.161<br/>samples = 34<br/>value = [31, 3, 0, 0, 0, 0]<br/>class = D>, fillcolor="#e88d4c"] ;
311 -> 315 ;
316 [label=<gini = 0.188<br/>samples = 19<br/>value = [17, 2, 0, 0, 0, 0]<br/>class = D>, fillcolor="#e89050"] ;
315 -> 316 ;
317 [label=<gini = 0.124<br/>samples = 15<br/>value = [14, 1, 0, 0, 0, 0]<br/>class = D>, fillcolor="#e78a47"] ;
315 -> 317 ;
318 [label=<Destination &le; 2.5<br/>gini = 0.123<br/>samples = 197<br/>value = [184, 13, 0, 0, 0, 0]<br/>class = D>, fillcolor="#e78a47"] ;
310 -> 318 ;
319 [label=<Converted_Regist &le; 15.5<br/>gini = 0.097<br/>samples = 98<br/>value = [93, 5, 0, 0, 0, 0]<br/>class = D>, fillcolor="#e68844"] ;
318 -> 319 ;
320 [label=<Day &le; 4.5<br/>gini = 0.062<br/>samples = 62<br/>value = [60, 2, 0, 0, 0, 0]<br/>class = D>, fillcolor="#e68540"] ;
319 -> 320 ;
321 [label=<Converted_Regist &le; 14.5<br/>gini = 0.057<br/>samples = 34<br/>value = [33, 1, 0, 0, 0, 0]<br/>class = D>, fillcolor="#e6853f"] ;
320 -> 321 ;
322 [label=<gini = 0.111<br/>samples = 17<br/>value = [16, 1, 0, 0, 0, 0]<br/>class = D>, fillcolor="#e78945"] ;
321 -> 322 ;
323 [label=<gini = 0.0<br/>samples = 17<br/>value = [17, 0, 0, 0, 0, 0]<br/>class = D>, fillcolor="#e58139"] ;
321 -> 323 ;
324 [label=<Converted_Regist &le; 14.5<br/>gini = 0.069<br/>samples = 28<br/>value = [27, 1, 0, 0, 0, 0]<br/>class = D>, fillcolor="#e68640"] ;
320 -> 324 ;
325 [label=<gini = 0.0<br/>samples = 13<br/>value = [13, 0, 0, 0, 0, 0]<br/>class = D>, fillcolor="#e58139"] ;
324 -> 325 ;
326 [label=<gini = 0.124<br/>samples = 15<br/>value = [14, 1, 0, 0, 0, 0]<br/>class = D>, fillcolor="#e78a47"] ;
324 -> 326 ;
327 [label=<Day &le; 4.5<br/>gini = 0.153<br/>samples = 36<br/>value = [33, 3, 0, 0, 0, 0]<br/>class = D>, fillcolor="#e78c4b"] ;
319 -> 327 ;
328 [label=<gini = 0.1<br/>samples = 19<br/>value = [18, 1, 0, 0, 0, 0]<br/>class = D>, fillcolor="#e68844"] ;
327 -> 328 ;
329 [label=<gini = 0.208<br/>samples = 17<br/>value = [15, 2, 0, 0, 0, 0]<br/>class = D>, fillcolor="#e89253"] ;
327 -> 329 ;
330 [label=<Converted_Regist &le; 14.5<br/>gini = 0.149<br/>samples = 99<br/>value = [91, 8, 0, 0, 0, 0]<br/>class = D>, fillcolor="#e78c4a"] ;
318 -> 330 ;
331 [label=<Day &le; 4.5<br/>gini = 0.219<br/>samples = 32<br/>value = [28, 4, 0, 0, 0, 0]<br/>class = D>, fillcolor="#e99355"] ;
330 -> 331 ;
332 [label=<gini = 0.0<br/>samples = 14<br/>value = [14, 0, 0, 0, 0, 0]<br/>class = D>, fillcolor="#e58139"] ;
331 -> 332 ;
333 [label=<gini = 0.346<br/>samples = 18<br/>value = [14, 4, 0, 0, 0, 0]<br/>class = D>, fillcolor="#eca572"] ;
331 -> 333 ;
334 [label=<Day &le; 4.5<br/>gini = 0.112<br/>samples = 67<br/>value = [63, 4, 0, 0, 0, 0]<br/>class = D>, fillcolor="#e78946"] ;
330 -> 334 ;
335 [label=<Converted_Regist &le; 15.5<br/>gini = 0.213<br/>samples = 33<br/>value = [29, 4, 0, 0, 0, 0]<br/>class = D>, fillcolor="#e99254"] ;
334 -> 335 ;
336 [label=<gini = 0.208<br/>samples = 17<br/>value = [15, 2, 0, 0, 0, 0]<br/>class = D>, fillcolor="#e89253"] ;
335 -> 336 ;
337 [label=<gini = 0.219<br/>samples = 16<br/>value = [14, 2, 0, 0, 0, 0]<br/>class = D>, fillcolor="#e99355"] ;
335 -> 337 ;
338 [label=<gini = 0.0<br/>samples = 34<br/>value = [34, 0, 0, 0, 0, 0]<br/>class = D>, fillcolor="#e58139"] ;
334 -> 338 ;
339 [label=<Destination &le; 1.5<br/>gini = 0.042<br/>samples = 93<br/>value = [91, 2, 0, 0, 0, 0]<br/>class = D>, fillcolor="#e6843d"] ;
297 -> 339 ;
340 [label=<Day &le; 4.5<br/>gini = 0.117<br/>samples = 32<br/>value = [30, 2, 0, 0, 0, 0]<br/>class = D>, fillcolor="#e78946"] ;
339 -> 340 ;
341 [label=<gini = 0.0<br/>samples = 15<br/>value = [15, 0, 0, 0, 0, 0]<br/>class = D>, fillcolor="#e58139"] ;
340 -> 341 ;
342 [label=<gini = 0.208<br/>samples = 17<br/>value = [15, 2, 0, 0, 0, 0]<br/>class = D>, fillcolor="#e89253"] ;
340 -> 342 ;
343 [label=<gini = 0.0<br/>samples = 61<br/>value = [61, 0, 0, 0, 0, 0]<br/>class = D>, fillcolor="#e58139"] ;
339 -> 343 ;
344 [label=<Converted_Regist &le; 16.5<br/>gini = 0.183<br/>samples = 386<br/>value = [347, 36, 3, 0, 0, 0]<br/>class = D>, fillcolor="#e88f4f"] ;
226 -> 344 ;
345 [label=<Converted_Regist &le; 13.5<br/>gini = 0.209<br/>samples = 307<br/>value = [271, 33, 3, 0, 0, 0]<br/>class = D>, fillcolor="#e89253"] ;
344 -> 345 ;
346 [label=<Day &le; 4.5<br/>gini = 0.267<br/>samples = 78<br/>value = [66, 10, 2, 0, 0, 0]<br/>class = D>, fillcolor="#ea975c"] ;
345 -> 346 ;
347 [label=<Day &le; 2.5<br/>gini = 0.301<br/>samples = 61<br/>value = [50, 10, 1, 0, 0, 0]<br/>class = D>, fillcolor="#eb9c64"] ;
346 -> 347 ;
348 [label=<Day &le; 1.5<br/>gini = 0.33<br/>samples = 24<br/>value = [19, 5, 0, 0, 0, 0]<br/>class = D>, fillcolor="#eca26d"] ;
347 -> 348 ;
349 [label=<gini = 0.298<br/>samples = 11<br/>value = [9, 2, 0, 0, 0, 0]<br/>class = D>, fillcolor="#eb9d65"] ;
348 -> 349 ;
350 [label=<gini = 0.355<br/>samples = 13<br/>value = [10, 3, 0, 0, 0, 0]<br/>class = D>, fillcolor="#eda774"] ;
348 -> 350 ;
351 [label=<Day &le; 3.5<br/>gini = 0.279<br/>samples = 37<br/>value = [31, 5, 1, 0, 0, 0]<br/>class = D>, fillcolor="#ea995e"] ;
347 -> 351 ;
352 [label=<gini = 0.266<br/>samples = 19<br/>value = [16, 3, 0, 0, 0, 0]<br/>class = D>, fillcolor="#ea995e"] ;
351 -> 352 ;
353 [label=<gini = 0.29<br/>samples = 18<br/>value = [15, 2, 1, 0, 0, 0]<br/>class = D>, fillcolor="#ea995e"] ;
351 -> 353 ;
354 [label=<gini = 0.111<br/>samples = 17<br/>value = [16, 0, 1, 0, 0, 0]<br/>class = D>, fillcolor="#e78945"] ;
346 -> 354 ;
355 [label=<Day &le; 3.5<br/>gini = 0.189<br/>samples = 229<br/>value = [205, 23, 1, 0, 0, 0]<br/>class = D>, fillcolor="#e89050"] ;
345 -> 355 ;
356 [label=<Day &le; 2.5<br/>gini = 0.15<br/>samples = 136<br/>value = [125, 10, 1, 0, 0, 0]<br/>class = D>, fillcolor="#e78c4a"] ;
355 -> 356 ;
357 [label=<Converted_Regist &le; 15.5<br/>gini = 0.124<br/>samples = 90<br/>value = [84, 6, 0, 0, 0, 0]<br/>class = D>, fillcolor="#e78a47"] ;
356 -> 357 ;
358 [label=<Day &le; 1.5<br/>gini = 0.146<br/>samples = 63<br/>value = [58, 5, 0, 0, 0, 0]<br/>class = D>, fillcolor="#e78c4a"] ;
357 -> 358 ;
359 [label=<Converted_Regist &le; 14.5<br/>gini = 0.18<br/>samples = 30<br/>value = [27, 3, 0, 0, 0, 0]<br/>class = D>, fillcolor="#e88f4f"] ;
358 -> 359 ;
360 [label=<gini = 0.188<br/>samples = 19<br/>value = [17, 2, 0, 0, 0, 0]<br/>class = D>, fillcolor="#e89050"] ;
359 -> 360 ;
361 [label=<gini = 0.165<br/>samples = 11<br/>value = [10, 1, 0, 0, 0, 0]<br/>class = D>, fillcolor="#e88e4d"] ;
359 -> 361 ;
362 [label=<Converted_Regist &le; 14.5<br/>gini = 0.114<br/>samples = 33<br/>value = [31, 2, 0, 0, 0, 0]<br/>class = D>, fillcolor="#e78946"] ;
358 -> 362 ;
363 [label=<gini = 0.111<br/>samples = 17<br/>value = [16, 1, 0, 0, 0, 0]<br/>class = D>, fillcolor="#e78945"] ;
362 -> 363 ;
364 [label=<gini = 0.117<br/>samples = 16<br/>value = [15, 1, 0, 0, 0, 0]<br/>class = D>, fillcolor="#e78946"] ;
362 -> 364 ;
365 [label=<Day &le; 1.5<br/>gini = 0.071<br/>samples = 27<br/>value = [26, 1, 0, 0, 0, 0]<br/>class = D>, fillcolor="#e68641"] ;
357 -> 365 ;
366 [label=<gini = 0.0<br/>samples = 12<br/>value = [12, 0, 0, 0, 0, 0]<br/>class = D>, fillcolor="#e58139"] ;
365 -> 366 ;
367 [label=<gini = 0.124<br/>samples = 15<br/>value = [14, 1, 0, 0, 0, 0]<br/>class = D>, fillcolor="#e78a47"] ;
365 -> 367 ;
368 [label=<Converted_Regist &le; 14.5<br/>gini = 0.198<br/>samples = 46<br/>value = [41, 4, 1, 0, 0, 0]<br/>class = D>, fillcolor="#e89051"] ;
356 -> 368 ;
369 [label=<gini = 0.24<br/>samples = 15<br/>value = [13, 1, 1, 0, 0, 0]<br/>class = D>, fillcolor="#e99355"] ;
368 -> 369 ;
370 [label=<Converted_Regist &le; 15.5<br/>gini = 0.175<br/>samples = 31<br/>value = [28, 3, 0, 0, 0, 0]<br/>class = D>, fillcolor="#e88e4e"] ;
368 -> 370 ;
371 [label=<gini = 0.124<br/>samples = 15<br/>value = [14, 1, 0, 0, 0, 0]<br/>class = D>, fillcolor="#e78a47"] ;
370 -> 371 ;
372 [label=<gini = 0.219<br/>samples = 16<br/>value = [14, 2, 0, 0, 0, 0]<br/>class = D>, fillcolor="#e99355"] ;
370 -> 372 ;
373 [label=<Converted_Regist &le; 15.5<br/>gini = 0.24<br/>samples = 93<br/>value = [80, 13, 0, 0, 0, 0]<br/>class = D>, fillcolor="#e99559"] ;
355 -> 373 ;
374 [label=<Converted_Regist &le; 14.5<br/>gini = 0.206<br/>samples = 60<br/>value = [53, 7, 0, 0, 0, 0]<br/>class = D>, fillcolor="#e89253"] ;
373 -> 374 ;
375 [label=<Day &le; 4.5<br/>gini = 0.225<br/>samples = 31<br/>value = [27, 4, 0, 0, 0, 0]<br/>class = D>, fillcolor="#e99456"] ;
374 -> 375 ;
376 [label=<gini = 0.255<br/>samples = 20<br/>value = [17, 3, 0, 0, 0, 0]<br/>class = D>, fillcolor="#ea975c"] ;
375 -> 376 ;
377 [label=<gini = 0.165<br/>samples = 11<br/>value = [10, 1, 0, 0, 0, 0]<br/>class = D>, fillcolor="#e88e4d"] ;
375 -> 377 ;
378 [label=<Day &le; 4.5<br/>gini = 0.185<br/>samples = 29<br/>value = [26, 3, 0, 0, 0, 0]<br/>class = D>, fillcolor="#e89050"] ;
374 -> 378 ;
379 [label=<gini = 0.117<br/>samples = 16<br/>value = [15, 1, 0, 0, 0, 0]<br/>class = D>, fillcolor="#e78946"] ;
378 -> 379 ;
380 [label=<gini = 0.26<br/>samples = 13<br/>value = [11, 2, 0, 0, 0, 0]<br/>class = D>, fillcolor="#ea985d"] ;
378 -> 380 ;
381 [label=<Day &le; 4.5<br/>gini = 0.298<br/>samples = 33<br/>value = [27, 6, 0, 0, 0, 0]<br/>class = D>, fillcolor="#eb9d65"] ;
373 -> 381 ;
382 [label=<gini = 0.32<br/>samples = 15<br/>value = [12, 3, 0, 0, 0, 0]<br/>class = D>, fillcolor="#eca06a"] ;
381 -> 382 ;
383 [label=<gini = 0.278<br/>samples = 18<br/>value = [15, 3, 0, 0, 0, 0]<br/>class = D>, fillcolor="#ea9a61"] ;
381 -> 383 ;
384 [label=<Day &le; 4.5<br/>gini = 0.073<br/>samples = 79<br/>value = [76, 3, 0, 0, 0, 0]<br/>class = D>, fillcolor="#e68641"] ;
344 -> 384 ;
385 [label=<Day &le; 2.5<br/>gini = 0.032<br/>samples = 62<br/>value = [61, 1, 0, 0, 0, 0]<br/>class = D>, fillcolor="#e5833c"] ;
384 -> 385 ;
386 [label=<gini = 0.0<br/>samples = 28<br/>value = [28, 0, 0, 0, 0, 0]<br/>class = D>, fillcolor="#e58139"] ;
385 -> 386 ;
387 [label=<Day &le; 3.5<br/>gini = 0.057<br/>samples = 34<br/>value = [33, 1, 0, 0, 0, 0]<br/>class = D>, fillcolor="#e6853f"] ;
385 -> 387 ;
388 [label=<gini = 0.124<br/>samples = 15<br/>value = [14, 1, 0, 0, 0, 0]<br/>class = D>, fillcolor="#e78a47"] ;
387 -> 388 ;
389 [label=<gini = 0.0<br/>samples = 19<br/>value = [19, 0, 0, 0, 0, 0]<br/>class = D>, fillcolor="#e58139"] ;
387 -> 389 ;
390 [label=<gini = 0.208<br/>samples = 17<br/>value = [15, 2, 0, 0, 0, 0]<br/>class = D>, fillcolor="#e89253"] ;
384 -> 390 ;
391 [label=<Converted_Regist &le; 18.5<br/>gini = 0.011<br/>samples = 1244<br/>value = [1237, 7, 0, 0, 0, 0]<br/>class = D>, fillcolor="#e5823a"] ;
225 -> 391 ;
392 [label=<Day &le; 4.5<br/>gini = 0.031<br/>samples = 319<br/>value = [314, 5, 0, 0, 0, 0]<br/>class = D>, fillcolor="#e5833c"] ;
391 -> 392 ;
393 [label=<Day &le; 3.5<br/>gini = 0.038<br/>samples = 256<br/>value = [251, 5, 0, 0, 0, 0]<br/>class = D>, fillcolor="#e6843d"] ;
392 -> 393 ;
394 [label=<Destination &le; 2.5<br/>gini = 0.031<br/>samples = 191<br/>value = [188, 3, 0, 0, 0, 0]<br/>class = D>, fillcolor="#e5833c"] ;
393 -> 394 ;
395 [label=<Day &le; 2.5<br/>gini = 0.064<br/>samples = 90<br/>value = [87, 3, 0, 0, 0, 0]<br/>class = D>, fillcolor="#e68540"] ;
394 -> 395 ;
396 [label=<Destination &le; 1.5<br/>gini = 0.097<br/>samples = 59<br/>value = [56, 3, 0, 0, 0, 0]<br/>class = D>, fillcolor="#e68844"] ;
395 -> 396 ;
397 [label=<Day &le; 1.5<br/>gini = 0.121<br/>samples = 31<br/>value = [29, 2, 0, 0, 0, 0]<br/>class = D>, fillcolor="#e78a47"] ;
396 -> 397 ;
398 [label=<gini = 0.142<br/>samples = 13<br/>value = [12, 1, 0, 0, 0, 0]<br/>class = D>, fillcolor="#e78c49"] ;
397 -> 398 ;
399 [label=<gini = 0.105<br/>samples = 18<br/>value = [17, 1, 0, 0, 0, 0]<br/>class = D>, fillcolor="#e78845"] ;
397 -> 399 ;
400 [label=<Day &le; 1.5<br/>gini = 0.069<br/>samples = 28<br/>value = [27, 1, 0, 0, 0, 0]<br/>class = D>, fillcolor="#e68640"] ;
396 -> 400 ;
401 [label=<gini = 0.0<br/>samples = 15<br/>value = [15, 0, 0, 0, 0, 0]<br/>class = D>, fillcolor="#e58139"] ;
400 -> 401 ;
402 [label=<gini = 0.142<br/>samples = 13<br/>value = [12, 1, 0, 0, 0, 0]<br/>class = D>, fillcolor="#e78c49"] ;
400 -> 402 ;
403 [label=<gini = 0.0<br/>samples = 31<br/>value = [31, 0, 0, 0, 0, 0]<br/>class = D>, fillcolor="#e58139"] ;
395 -> 403 ;
404 [label=<gini = 0.0<br/>samples = 101<br/>value = [101, 0, 0, 0, 0, 0]<br/>class = D>, fillcolor="#e58139"] ;
394 -> 404 ;
405 [label=<Destination &le; 2.5<br/>gini = 0.06<br/>samples = 65<br/>value = [63, 2, 0, 0, 0, 0]<br/>class = D>, fillcolor="#e6853f"] ;
393 -> 405 ;
406 [label=<gini = 0.0<br/>samples = 34<br/>value = [34, 0, 0, 0, 0, 0]<br/>class = D>, fillcolor="#e58139"] ;
405 -> 406 ;
407 [label=<Destination &le; 3.5<br/>gini = 0.121<br/>samples = 31<br/>value = [29, 2, 0, 0, 0, 0]<br/>class = D>, fillcolor="#e78a47"] ;
405 -> 407 ;
408 [label=<gini = 0.117<br/>samples = 16<br/>value = [15, 1, 0, 0, 0, 0]<br/>class = D>, fillcolor="#e78946"] ;
407 -> 408 ;
409 [label=<gini = 0.124<br/>samples = 15<br/>value = [14, 1, 0, 0, 0, 0]<br/>class = D>, fillcolor="#e78a47"] ;
407 -> 409 ;
410 [label=<gini = 0.0<br/>samples = 63<br/>value = [63, 0, 0, 0, 0, 0]<br/>class = D>, fillcolor="#e58139"] ;
392 -> 410 ;
411 [label=<Day &le; 4.5<br/>gini = 0.004<br/>samples = 925<br/>value = [923, 2, 0, 0, 0, 0]<br/>class = D>, fillcolor="#e58139"] ;
391 -> 411 ;
412 [label=<gini = 0.0<br/>samples = 740<br/>value = [740, 0, 0, 0, 0, 0]<br/>class = D>, fillcolor="#e58139"] ;
411 -> 412 ;
413 [label=<Converted_Regist &le; 19.5<br/>gini = 0.021<br/>samples = 185<br/>value = [183, 2, 0, 0, 0, 0]<br/>class = D>, fillcolor="#e5823b"] ;
411 -> 413 ;
414 [label=<Destination &le; 2.5<br/>gini = 0.059<br/>samples = 66<br/>value = [64, 2, 0, 0, 0, 0]<br/>class = D>, fillcolor="#e6853f"] ;
413 -> 414 ;
415 [label=<gini = 0.0<br/>samples = 31<br/>value = [31, 0, 0, 0, 0, 0]<br/>class = D>, fillcolor="#e58139"] ;
414 -> 415 ;
416 [label=<Destination &le; 3.5<br/>gini = 0.108<br/>samples = 35<br/>value = [33, 2, 0, 0, 0, 0]<br/>class = D>, fillcolor="#e78945"] ;
414 -> 416 ;
417 [label=<gini = 0.1<br/>samples = 19<br/>value = [18, 1, 0, 0, 0, 0]<br/>class = D>, fillcolor="#e68844"] ;
416 -> 417 ;
418 [label=<gini = 0.117<br/>samples = 16<br/>value = [15, 1, 0, 0, 0, 0]<br/>class = D>, fillcolor="#e78946"] ;
416 -> 418 ;
419 [label=<gini = 0.0<br/>samples = 119<br/>value = [119, 0, 0, 0, 0, 0]<br/>class = D>, fillcolor="#e58139"] ;
413 -> 419 ;
420 [label=<Converted_Regist &le; 12.5<br/>gini = 0.043<br/>samples = 19612<br/>value = [19179, 414, 19, 0, 0, 0]<br/>class = D>, fillcolor="#e6843d"] ;
0 -> 420 [labeldistance=2.5, labelangle=-45, headlabel="False"] ;
421 [label=<Destination &le; 10.5<br/>gini = 0.073<br/>samples = 7816<br/>value = [7522, 282, 12, 0, 0, 0]<br/>class = D>, fillcolor="#e68641"] ;
420 -> 421 ;
422 [label=<Destination &le; 5.5<br/>gini = 0.033<br/>samples = 2761<br/>value = [2715, 46, 0, 0, 0, 0]<br/>class = D>, fillcolor="#e5833c"] ;
421 -> 422 ;
423 [label=<Converted_Regist &le; 7.5<br/>gini = 0.105<br/>samples = 468<br/>value = [442, 26, 0, 0, 0, 0]<br/>class = D>, fillcolor="#e78845"] ;
422 -> 423 ;
424 [label=<Day &le; 1.5<br/>gini = 0.025<br/>samples = 80<br/>value = [79, 1, 0, 0, 0, 0]<br/>class = D>, fillcolor="#e5833c"] ;
423 -> 424 ;
425 [label=<gini = 0.117<br/>samples = 16<br/>value = [15, 1, 0, 0, 0, 0]<br/>class = D>, fillcolor="#e78946"] ;
424 -> 425 ;
426 [label=<gini = 0.0<br/>samples = 64<br/>value = [64, 0, 0, 0, 0, 0]<br/>class = D>, fillcolor="#e58139"] ;
424 -> 426 ;
427 [label=<Converted_Regist &le; 9.5<br/>gini = 0.121<br/>samples = 388<br/>value = [363, 25, 0, 0, 0, 0]<br/>class = D>, fillcolor="#e78a47"] ;
423 -> 427 ;
428 [label=<Day &le; 2.5<br/>gini = 0.17<br/>samples = 149<br/>value = [135, 14, 0, 0, 0, 0]<br/>class = D>, fillcolor="#e88e4e"] ;
427 -> 428 ;
429 [label=<Day &le; 1.5<br/>gini = 0.069<br/>samples = 56<br/>value = [54, 2, 0, 0, 0, 0]<br/>class = D>, fillcolor="#e68640"] ;
428 -> 429 ;
430 [label=<gini = 0.0<br/>samples = 26<br/>value = [26, 0, 0, 0, 0, 0]<br/>class = D>, fillcolor="#e58139"] ;
429 -> 430 ;
431 [label=<Converted_Regist &le; 8.5<br/>gini = 0.124<br/>samples = 30<br/>value = [28, 2, 0, 0, 0, 0]<br/>class = D>, fillcolor="#e78a47"] ;
429 -> 431 ;
432 [label=<gini = 0.153<br/>samples = 12<br/>value = [11, 1, 0, 0, 0, 0]<br/>class = D>, fillcolor="#e78c4b"] ;
431 -> 432 ;
433 [label=<gini = 0.105<br/>samples = 18<br/>value = [17, 1, 0, 0, 0, 0]<br/>class = D>, fillcolor="#e78845"] ;
431 -> 433 ;
434 [label=<Day &le; 3.5<br/>gini = 0.225<br/>samples = 93<br/>value = [81, 12, 0, 0, 0, 0]<br/>class = D>, fillcolor="#e99456"] ;
428 -> 434 ;
435 [label=<Converted_Regist &le; 8.5<br/>gini = 0.264<br/>samples = 32<br/>value = [27, 5, 0, 0, 0, 0]<br/>class = D>, fillcolor="#ea985e"] ;
434 -> 435 ;
436 [label=<gini = 0.117<br/>samples = 16<br/>value = [15, 1, 0, 0, 0, 0]<br/>class = D>, fillcolor="#e78946"] ;
435 -> 436 ;
437 [label=<gini = 0.375<br/>samples = 16<br/>value = [12, 4, 0, 0, 0, 0]<br/>class = D>, fillcolor="#eeab7b"] ;
435 -> 437 ;
438 [label=<Converted_Regist &le; 8.5<br/>gini = 0.203<br/>samples = 61<br/>value = [54, 7, 0, 0, 0, 0]<br/>class = D>, fillcolor="#e89153"] ;
434 -> 438 ;
439 [label=<Day &le; 4.5<br/>gini = 0.271<br/>samples = 31<br/>value = [26, 5, 0, 0, 0, 0]<br/>class = D>, fillcolor="#ea995f"] ;
438 -> 439 ;
440 [label=<gini = 0.32<br/>samples = 15<br/>value = [12, 3, 0, 0, 0, 0]<br/>class = D>, fillcolor="#eca06a"] ;
439 -> 440 ;
441 [label=<gini = 0.219<br/>samples = 16<br/>value = [14, 2, 0, 0, 0, 0]<br/>class = D>, fillcolor="#e99355"] ;
439 -> 441 ;
442 [label=<Day &le; 4.5<br/>gini = 0.124<br/>samples = 30<br/>value = [28, 2, 0, 0, 0, 0]<br/>class = D>, fillcolor="#e78a47"] ;
438 -> 442 ;
443 [label=<gini = 0.0<br/>samples = 15<br/>value = [15, 0, 0, 0, 0, 0]<br/>class = D>, fillcolor="#e58139"] ;
442 -> 443 ;
444 [label=<gini = 0.231<br/>samples = 15<br/>value = [13, 2, 0, 0, 0, 0]<br/>class = D>, fillcolor="#e99457"] ;
442 -> 444 ;
445 [label=<Day &le; 3.5<br/>gini = 0.088<br/>samples = 239<br/>value = [228, 11, 0, 0, 0, 0]<br/>class = D>, fillcolor="#e68743"] ;
427 -> 445 ;
446 [label=<Day &le; 2.5<br/>gini = 0.067<br/>samples = 145<br/>value = [140, 5, 0, 0, 0, 0]<br/>class = D>, fillcolor="#e68640"] ;
445 -> 446 ;
447 [label=<Converted_Regist &le; 10.5<br/>gini = 0.099<br/>samples = 96<br/>value = [91, 5, 0, 0, 0, 0]<br/>class = D>, fillcolor="#e68844"] ;
446 -> 447 ;
448 [label=<Day &le; 1.5<br/>gini = 0.061<br/>samples = 32<br/>value = [31, 1, 0, 0, 0, 0]<br/>class = D>, fillcolor="#e6853f"] ;
447 -> 448 ;
449 [label=<gini = 0.111<br/>samples = 17<br/>value = [16, 1, 0, 0, 0, 0]<br/>class = D>, fillcolor="#e78945"] ;
448 -> 449 ;
450 [label=<gini = 0.0<br/>samples = 15<br/>value = [15, 0, 0, 0, 0, 0]<br/>class = D>, fillcolor="#e58139"] ;
448 -> 450 ;
451 [label=<Day &le; 1.5<br/>gini = 0.117<br/>samples = 64<br/>value = [60, 4, 0, 0, 0, 0]<br/>class = D>, fillcolor="#e78946"] ;
447 -> 451 ;
452 [label=<Converted_Regist &le; 11.5<br/>gini = 0.124<br/>samples = 30<br/>value = [28, 2, 0, 0, 0, 0]<br/>class = D>, fillcolor="#e78a47"] ;
451 -> 452 ;
453 [label=<gini = 0.117<br/>samples = 16<br/>value = [15, 1, 0, 0, 0, 0]<br/>class = D>, fillcolor="#e78946"] ;
452 -> 453 ;
454 [label=<gini = 0.133<br/>samples = 14<br/>value = [13, 1, 0, 0, 0, 0]<br/>class = D>, fillcolor="#e78b48"] ;
452 -> 454 ;
455 [label=<Converted_Regist &le; 11.5<br/>gini = 0.111<br/>samples = 34<br/>value = [32, 2, 0, 0, 0, 0]<br/>class = D>, fillcolor="#e78945"] ;
451 -> 455 ;
456 [label=<gini = 0.105<br/>samples = 18<br/>value = [17, 1, 0, 0, 0, 0]<br/>class = D>, fillcolor="#e78845"] ;
455 -> 456 ;
457 [label=<gini = 0.117<br/>samples = 16<br/>value = [15, 1, 0, 0, 0, 0]<br/>class = D>, fillcolor="#e78946"] ;
455 -> 457 ;
458 [label=<gini = 0.0<br/>samples = 49<br/>value = [49, 0, 0, 0, 0, 0]<br/>class = D>, fillcolor="#e58139"] ;
446 -> 458 ;
459 [label=<Converted_Regist &le; 11.5<br/>gini = 0.12<br/>samples = 94<br/>value = [88, 6, 0, 0, 0, 0]<br/>class = D>, fillcolor="#e78a46"] ;
445 -> 459 ;
460 [label=<Converted_Regist &le; 10.5<br/>gini = 0.091<br/>samples = 63<br/>value = [60, 3, 0, 0, 0, 0]<br/>class = D>, fillcolor="#e68743"] ;
459 -> 460 ;
461 [label=<Day &le; 4.5<br/>gini = 0.121<br/>samples = 31<br/>value = [29, 2, 0, 0, 0, 0]<br/>class = D>, fillcolor="#e78a47"] ;
460 -> 461 ;
462 [label=<gini = 0.111<br/>samples = 17<br/>value = [16, 1, 0, 0, 0, 0]<br/>class = D>, fillcolor="#e78945"] ;
461 -> 462 ;
463 [label=<gini = 0.133<br/>samples = 14<br/>value = [13, 1, 0, 0, 0, 0]<br/>class = D>, fillcolor="#e78b48"] ;
461 -> 463 ;
464 [label=<Day &le; 4.5<br/>gini = 0.061<br/>samples = 32<br/>value = [31, 1, 0, 0, 0, 0]<br/>class = D>, fillcolor="#e6853f"] ;
460 -> 464 ;
465 [label=<gini = 0.124<br/>samples = 15<br/>value = [14, 1, 0, 0, 0, 0]<br/>class = D>, fillcolor="#e78a47"] ;
464 -> 465 ;
466 [label=<gini = 0.0<br/>samples = 17<br/>value = [17, 0, 0, 0, 0, 0]<br/>class = D>, fillcolor="#e58139"] ;
464 -> 466 ;
467 [label=<Day &le; 4.5<br/>gini = 0.175<br/>samples = 31<br/>value = [28, 3, 0, 0, 0, 0]<br/>class = D>, fillcolor="#e88e4e"] ;
459 -> 467 ;
468 [label=<gini = 0.117<br/>samples = 16<br/>value = [15, 1, 0, 0, 0, 0]<br/>class = D>, fillcolor="#e78946"] ;
467 -> 468 ;
469 [label=<gini = 0.231<br/>samples = 15<br/>value = [13, 2, 0, 0, 0, 0]<br/>class = D>, fillcolor="#e99457"] ;
467 -> 469 ;
470 [label=<Converted_Regist &le; 8.5<br/>gini = 0.017<br/>samples = 2293<br/>value = [2273, 20, 0, 0, 0, 0]<br/>class = D>, fillcolor="#e5823b"] ;
422 -> 470 ;
471 [label=<gini = 0.0<br/>samples = 747<br/>value = [747, 0, 0, 0, 0, 0]<br/>class = D>, fillcolor="#e58139"] ;
470 -> 471 ;
472 [label=<Day &le; 3.5<br/>gini = 0.026<br/>samples = 1546<br/>value = [1526, 20, 0, 0, 0, 0]<br/>class = D>, fillcolor="#e5833c"] ;
470 -> 472 ;
473 [label=<Day &le; 1.5<br/>gini = 0.013<br/>samples = 922<br/>value = [916, 6, 0, 0, 0, 0]<br/>class = D>, fillcolor="#e5823a"] ;
472 -> 473 ;
474 [label=<gini = 0.0<br/>samples = 308<br/>value = [308, 0, 0, 0, 0, 0]<br/>class = D>, fillcolor="#e58139"] ;
473 -> 474 ;
475 [label=<Converted_Regist &le; 9.5<br/>gini = 0.019<br/>samples = 614<br/>value = [608, 6, 0, 0, 0, 0]<br/>class = D>, fillcolor="#e5823b"] ;
473 -> 475 ;
476 [label=<Destination &le; 8.5<br/>gini = 0.038<br/>samples = 153<br/>value = [150, 3, 0, 0, 0, 0]<br/>class = D>, fillcolor="#e6843d"] ;
475 -> 476 ;
477 [label=<Day &le; 2.5<br/>gini = 0.02<br/>samples = 97<br/>value = [96, 1, 0, 0, 0, 0]<br/>class = D>, fillcolor="#e5823b"] ;
476 -> 477 ;
478 [label=<Destination &le; 6.5<br/>gini = 0.038<br/>samples = 52<br/>value = [51, 1, 0, 0, 0, 0]<br/>class = D>, fillcolor="#e6833d"] ;
477 -> 478 ;
479 [label=<gini = 0.0<br/>samples = 19<br/>value = [19, 0, 0, 0, 0, 0]<br/>class = D>, fillcolor="#e58139"] ;
478 -> 479 ;
480 [label=<Destination &le; 7.5<br/>gini = 0.059<br/>samples = 33<br/>value = [32, 1, 0, 0, 0, 0]<br/>class = D>, fillcolor="#e6853f"] ;
478 -> 480 ;
481 [label=<gini = 0.117<br/>samples = 16<br/>value = [15, 1, 0, 0, 0, 0]<br/>class = D>, fillcolor="#e78946"] ;
480 -> 481 ;
482 [label=<gini = 0.0<br/>samples = 17<br/>value = [17, 0, 0, 0, 0, 0]<br/>class = D>, fillcolor="#e58139"] ;
480 -> 482 ;
483 [label=<gini = 0.0<br/>samples = 45<br/>value = [45, 0, 0, 0, 0, 0]<br/>class = D>, fillcolor="#e58139"] ;
477 -> 483 ;
484 [label=<Day &le; 2.5<br/>gini = 0.069<br/>samples = 56<br/>value = [54, 2, 0, 0, 0, 0]<br/>class = D>, fillcolor="#e68640"] ;
476 -> 484 ;
485 [label=<Destination &le; 9.5<br/>gini = 0.074<br/>samples = 26<br/>value = [25, 1, 0, 0, 0, 0]<br/>class = D>, fillcolor="#e68641"] ;
484 -> 485 ;
486 [label=<gini = 0.0<br/>samples = 14<br/>value = [14, 0, 0, 0, 0, 0]<br/>class = D>, fillcolor="#e58139"] ;
485 -> 486 ;
487 [label=<gini = 0.153<br/>samples = 12<br/>value = [11, 1, 0, 0, 0, 0]<br/>class = D>, fillcolor="#e78c4b"] ;
485 -> 487 ;
488 [label=<Destination &le; 9.5<br/>gini = 0.064<br/>samples = 30<br/>value = [29, 1, 0, 0, 0, 0]<br/>class = D>, fillcolor="#e68540"] ;
484 -> 488 ;
489 [label=<gini = 0.142<br/>samples = 13<br/>value = [12, 1, 0, 0, 0, 0]<br/>class = D>, fillcolor="#e78c49"] ;
488 -> 489 ;
490 [label=<gini = 0.0<br/>samples = 17<br/>value = [17, 0, 0, 0, 0, 0]<br/>class = D>, fillcolor="#e58139"] ;
488 -> 490 ;
491 [label=<Destination &le; 6.5<br/>gini = 0.013<br/>samples = 461<br/>value = [458, 3, 0, 0, 0, 0]<br/>class = D>, fillcolor="#e5823a"] ;
475 -> 491 ;
492 [label=<Day &le; 2.5<br/>gini = 0.042<br/>samples = 93<br/>value = [91, 2, 0, 0, 0, 0]<br/>class = D>, fillcolor="#e6843d"] ;
491 -> 492 ;
493 [label=<Converted_Regist &le; 10.5<br/>gini = 0.081<br/>samples = 47<br/>value = [45, 2, 0, 0, 0, 0]<br/>class = D>, fillcolor="#e68742"] ;
492 -> 493 ;
494 [label=<gini = 0.0<br/>samples = 16<br/>value = [16, 0, 0, 0, 0, 0]<br/>class = D>, fillcolor="#e58139"] ;
493 -> 494 ;
495 [label=<Converted_Regist &le; 11.5<br/>gini = 0.121<br/>samples = 31<br/>value = [29, 2, 0, 0, 0, 0]<br/>class = D>, fillcolor="#e78a47"] ;
493 -> 495 ;
496 [label=<gini = 0.105<br/>samples = 18<br/>value = [17, 1, 0, 0, 0, 0]<br/>class = D>, fillcolor="#e78845"] ;
495 -> 496 ;
497 [label=<gini = 0.142<br/>samples = 13<br/>value = [12, 1, 0, 0, 0, 0]<br/>class = D>, fillcolor="#e78c49"] ;
495 -> 497 ;
498 [label=<gini = 0.0<br/>samples = 46<br/>value = [46, 0, 0, 0, 0, 0]<br/>class = D>, fillcolor="#e58139"] ;
492 -> 498 ;
499 [label=<Converted_Regist &le; 11.5<br/>gini = 0.005<br/>samples = 368<br/>value = [367, 1, 0, 0, 0, 0]<br/>class = D>, fillcolor="#e5813a"] ;
491 -> 499 ;
500 [label=<gini = 0.0<br/>samples = 242<br/>value = [242, 0, 0, 0, 0, 0]<br/>class = D>, fillcolor="#e58139"] ;
499 -> 500 ;
501 [label=<Destination &le; 8.5<br/>gini = 0.016<br/>samples = 126<br/>value = [125, 1, 0, 0, 0, 0]<br/>class = D>, fillcolor="#e5823b"] ;
499 -> 501 ;
502 [label=<gini = 0.0<br/>samples = 65<br/>value = [65, 0, 0, 0, 0, 0]<br/>class = D>, fillcolor="#e58139"] ;
501 -> 502 ;
503 [label=<Destination &le; 9.5<br/>gini = 0.032<br/>samples = 61<br/>value = [60, 1, 0, 0, 0, 0]<br/>class = D>, fillcolor="#e5833c"] ;
501 -> 503 ;
504 [label=<Day &le; 2.5<br/>gini = 0.064<br/>samples = 30<br/>value = [29, 1, 0, 0, 0, 0]<br/>class = D>, fillcolor="#e68540"] ;
503 -> 504 ;
505 [label=<gini = 0.0<br/>samples = 15<br/>value = [15, 0, 0, 0, 0, 0]<br/>class = D>, fillcolor="#e58139"] ;
504 -> 505 ;
506 [label=<gini = 0.124<br/>samples = 15<br/>value = [14, 1, 0, 0, 0, 0]<br/>class = D>, fillcolor="#e78a47"] ;
504 -> 506 ;
507 [label=<gini = 0.0<br/>samples = 31<br/>value = [31, 0, 0, 0, 0, 0]<br/>class = D>, fillcolor="#e58139"] ;
503 -> 507 ;
508 [label=<Destination &le; 7.5<br/>gini = 0.044<br/>samples = 624<br/>value = [610, 14, 0, 0, 0, 0]<br/>class = D>, fillcolor="#e6843e"] ;
472 -> 508 ;
509 [label=<Day &le; 4.5<br/>gini = 0.063<br/>samples = 245<br/>value = [237, 8, 0, 0, 0, 0]<br/>class = D>, fillcolor="#e68540"] ;
508 -> 509 ;
510 [label=<Converted_Regist &le; 10.5<br/>gini = 0.096<br/>samples = 119<br/>value = [113, 6, 0, 0, 0, 0]<br/>class = D>, fillcolor="#e68844"] ;
509 -> 510 ;
511 [label=<Destination &le; 6.5<br/>gini = 0.034<br/>samples = 58<br/>value = [57, 1, 0, 0, 0, 0]<br/>class = D>, fillcolor="#e5833c"] ;
510 -> 511 ;
512 [label=<gini = 0.0<br/>samples = 28<br/>value = [28, 0, 0, 0, 0, 0]<br/>class = D>, fillcolor="#e58139"] ;
511 -> 512 ;
513 [label=<Converted_Regist &le; 9.5<br/>gini = 0.064<br/>samples = 30<br/>value = [29, 1, 0, 0, 0, 0]<br/>class = D>, fillcolor="#e68540"] ;
511 -> 513 ;
514 [label=<gini = 0.133<br/>samples = 14<br/>value = [13, 1, 0, 0, 0, 0]<br/>class = D>, fillcolor="#e78b48"] ;
513 -> 514 ;
515 [label=<gini = 0.0<br/>samples = 16<br/>value = [16, 0, 0, 0, 0, 0]<br/>class = D>, fillcolor="#e58139"] ;
513 -> 515 ;
516 [label=<Destination &le; 6.5<br/>gini = 0.15<br/>samples = 61<br/>value = [56, 5, 0, 0, 0, 0]<br/>class = D>, fillcolor="#e78c4b"] ;
510 -> 516 ;
517 [label=<Converted_Regist &le; 11.5<br/>gini = 0.071<br/>samples = 27<br/>value = [26, 1, 0, 0, 0, 0]<br/>class = D>, fillcolor="#e68641"] ;
516 -> 517 ;
518 [label=<gini = 0.142<br/>samples = 13<br/>value = [12, 1, 0, 0, 0, 0]<br/>class = D>, fillcolor="#e78c49"] ;
517 -> 518 ;
519 [label=<gini = 0.0<br/>samples = 14<br/>value = [14, 0, 0, 0, 0, 0]<br/>class = D>, fillcolor="#e58139"] ;
517 -> 519 ;
520 [label=<Converted_Regist &le; 11.5<br/>gini = 0.208<br/>samples = 34<br/>value = [30, 4, 0, 0, 0, 0]<br/>class = D>, fillcolor="#e89253"] ;
516 -> 520 ;
521 [label=<gini = 0.219<br/>samples = 16<br/>value = [14, 2, 0, 0, 0, 0]<br/>class = D>, fillcolor="#e99355"] ;
520 -> 521 ;
522 [label=<gini = 0.198<br/>samples = 18<br/>value = [16, 2, 0, 0, 0, 0]<br/>class = D>, fillcolor="#e89152"] ;
520 -> 522 ;
523 [label=<Destination &le; 6.5<br/>gini = 0.031<br/>samples = 126<br/>value = [124, 2, 0, 0, 0, 0]<br/>class = D>, fillcolor="#e5833c"] ;
509 -> 523 ;
524 [label=<Converted_Regist &le; 9.5<br/>gini = 0.061<br/>samples = 64<br/>value = [62, 2, 0, 0, 0, 0]<br/>class = D>, fillcolor="#e6853f"] ;
523 -> 524 ;
525 [label=<gini = 0.0<br/>samples = 15<br/>value = [15, 0, 0, 0, 0, 0]<br/>class = D>, fillcolor="#e58139"] ;
524 -> 525 ;
526 [label=<Converted_Regist &le; 10.5<br/>gini = 0.078<br/>samples = 49<br/>value = [47, 2, 0, 0, 0, 0]<br/>class = D>, fillcolor="#e68641"] ;
524 -> 526 ;
527 [label=<gini = 0.124<br/>samples = 15<br/>value = [14, 1, 0, 0, 0, 0]<br/>class = D>, fillcolor="#e78a47"] ;
526 -> 527 ;
528 [label=<Converted_Regist &le; 11.5<br/>gini = 0.057<br/>samples = 34<br/>value = [33, 1, 0, 0, 0, 0]<br/>class = D>, fillcolor="#e6853f"] ;
526 -> 528 ;
529 [label=<gini = 0.0<br/>samples = 17<br/>value = [17, 0, 0, 0, 0, 0]<br/>class = D>, fillcolor="#e58139"] ;
528 -> 529 ;
530 [label=<gini = 0.111<br/>samples = 17<br/>value = [16, 1, 0, 0, 0, 0]<br/>class = D>, fillcolor="#e78945"] ;
528 -> 530 ;
531 [label=<gini = 0.0<br/>samples = 62<br/>value = [62, 0, 0, 0, 0, 0]<br/>class = D>, fillcolor="#e58139"] ;
523 -> 531 ;
532 [label=<Destination &le; 8.5<br/>gini = 0.031<br/>samples = 379<br/>value = [373, 6, 0, 0, 0, 0]<br/>class = D>, fillcolor="#e5833c"] ;
508 -> 532 ;
533 [label=<Day &le; 4.5<br/>gini = 0.015<br/>samples = 129<br/>value = [128, 1, 0, 0, 0, 0]<br/>class = D>, fillcolor="#e5823b"] ;
532 -> 533 ;
534 [label=<gini = 0.0<br/>samples = 66<br/>value = [66, 0, 0, 0, 0, 0]<br/>class = D>, fillcolor="#e58139"] ;
533 -> 534 ;
535 [label=<Converted_Regist &le; 10.5<br/>gini = 0.031<br/>samples = 63<br/>value = [62, 1, 0, 0, 0, 0]<br/>class = D>, fillcolor="#e5833c"] ;
533 -> 535 ;
536 [label=<gini = 0.0<br/>samples = 33<br/>value = [33, 0, 0, 0, 0, 0]<br/>class = D>, fillcolor="#e58139"] ;
535 -> 536 ;
537 [label=<Converted_Regist &le; 11.5<br/>gini = 0.064<br/>samples = 30<br/>value = [29, 1, 0, 0, 0, 0]<br/>class = D>, fillcolor="#e68540"] ;
535 -> 537 ;
538 [label=<gini = 0.117<br/>samples = 16<br/>value = [15, 1, 0, 0, 0, 0]<br/>class = D>, fillcolor="#e78946"] ;
537 -> 538 ;
539 [label=<gini = 0.0<br/>samples = 14<br/>value = [14, 0, 0, 0, 0, 0]<br/>class = D>, fillcolor="#e58139"] ;
537 -> 539 ;
540 [label=<Converted_Regist &le; 10.5<br/>gini = 0.039<br/>samples = 250<br/>value = [245, 5, 0, 0, 0, 0]<br/>class = D>, fillcolor="#e6843d"] ;
532 -> 540 ;
541 [label=<Converted_Regist &le; 9.5<br/>gini = 0.061<br/>samples = 126<br/>value = [122, 4, 0, 0, 0, 0]<br/>class = D>, fillcolor="#e6853f"] ;
540 -> 541 ;
542 [label=<Destination &le; 9.5<br/>gini = 0.034<br/>samples = 57<br/>value = [56, 1, 0, 0, 0, 0]<br/>class = D>, fillcolor="#e5833d"] ;
541 -> 542 ;
543 [label=<Day &le; 4.5<br/>gini = 0.067<br/>samples = 29<br/>value = [28, 1, 0, 0, 0, 0]<br/>class = D>, fillcolor="#e68640"] ;
542 -> 543 ;
544 [label=<gini = 0.0<br/>samples = 12<br/>value = [12, 0, 0, 0, 0, 0]<br/>class = D>, fillcolor="#e58139"] ;
543 -> 544 ;
545 [label=<gini = 0.111<br/>samples = 17<br/>value = [16, 1, 0, 0, 0, 0]<br/>class = D>, fillcolor="#e78945"] ;
543 -> 545 ;
546 [label=<gini = 0.0<br/>samples = 28<br/>value = [28, 0, 0, 0, 0, 0]<br/>class = D>, fillcolor="#e58139"] ;
542 -> 546 ;
547 [label=<Day &le; 4.5<br/>gini = 0.083<br/>samples = 69<br/>value = [66, 3, 0, 0, 0, 0]<br/>class = D>, fillcolor="#e68742"] ;
541 -> 547 ;
548 [label=<Destination &le; 9.5<br/>gini = 0.111<br/>samples = 34<br/>value = [32, 2, 0, 0, 0, 0]<br/>class = D>, fillcolor="#e78945"] ;
547 -> 548 ;
549 [label=<gini = 0.0<br/>samples = 16<br/>value = [16, 0, 0, 0, 0, 0]<br/>class = D>, fillcolor="#e58139"] ;
548 -> 549 ;
550 [label=<gini = 0.198<br/>samples = 18<br/>value = [16, 2, 0, 0, 0, 0]<br/>class = D>, fillcolor="#e89152"] ;
548 -> 550 ;
551 [label=<Destination &le; 9.5<br/>gini = 0.056<br/>samples = 35<br/>value = [34, 1, 0, 0, 0, 0]<br/>class = D>, fillcolor="#e6853f"] ;
547 -> 551 ;
552 [label=<gini = 0.117<br/>samples = 16<br/>value = [15, 1, 0, 0, 0, 0]<br/>class = D>, fillcolor="#e78946"] ;
551 -> 552 ;
553 [label=<gini = 0.0<br/>samples = 19<br/>value = [19, 0, 0, 0, 0, 0]<br/>class = D>, fillcolor="#e58139"] ;
551 -> 553 ;
554 [label=<Converted_Regist &le; 11.5<br/>gini = 0.016<br/>samples = 124<br/>value = [123, 1, 0, 0, 0, 0]<br/>class = D>, fillcolor="#e5823b"] ;
540 -> 554 ;
555 [label=<gini = 0.0<br/>samples = 62<br/>value = [62, 0, 0, 0, 0, 0]<br/>class = D>, fillcolor="#e58139"] ;
554 -> 555 ;
556 [label=<Destination &le; 9.5<br/>gini = 0.032<br/>samples = 62<br/>value = [61, 1, 0, 0, 0, 0]<br/>class = D>, fillcolor="#e5833c"] ;
554 -> 556 ;
557 [label=<Day &le; 4.5<br/>gini = 0.059<br/>samples = 33<br/>value = [32, 1, 0, 0, 0, 0]<br/>class = D>, fillcolor="#e6853f"] ;
556 -> 557 ;
558 [label=<gini = 0.095<br/>samples = 20<br/>value = [19, 1, 0, 0, 0, 0]<br/>class = D>, fillcolor="#e68843"] ;
557 -> 558 ;
559 [label=<gini = 0.0<br/>samples = 13<br/>value = [13, 0, 0, 0, 0, 0]<br/>class = D>, fillcolor="#e58139"] ;
557 -> 559 ;
560 [label=<gini = 0.0<br/>samples = 29<br/>value = [29, 0, 0, 0, 0, 0]<br/>class = D>, fillcolor="#e58139"] ;
556 -> 560 ;
561 [label=<Destination &le; 11.5<br/>gini = 0.094<br/>samples = 5055<br/>value = [4807, 236, 12, 0, 0, 0]<br/>class = D>, fillcolor="#e68743"] ;
421 -> 561 ;
562 [label=<Converted_Regist &le; 7.5<br/>gini = 0.32<br/>samples = 469<br/>value = [376, 90, 3, 0, 0, 0]<br/>class = D>, fillcolor="#eba06a"] ;
561 -> 562 ;
563 [label=<Day &le; 4.5<br/>gini = 0.332<br/>samples = 79<br/>value = [14, 63, 2, 0, 0, 0]<br/>class = e>, fillcolor="#b5eb6a"] ;
562 -> 563 ;
564 [label=<Day &le; 1.5<br/>gini = 0.384<br/>samples = 65<br/>value = [14, 49, 2, 0, 0, 0]<br/>class = e>, fillcolor="#bced77"] ;
563 -> 564 ;
565 [label=<gini = 0.43<br/>samples = 16<br/>value = [5, 11, 0, 0, 0, 0]<br/>class = e>, fillcolor="#caf193"] ;
564 -> 565 ;
566 [label=<Day &le; 2.5<br/>gini = 0.363<br/>samples = 49<br/>value = [9, 38, 2, 0, 0, 0]<br/>class = e>, fillcolor="#b8ec6f"] ;
564 -> 566 ;
567 [label=<gini = 0.208<br/>samples = 17<br/>value = [2, 15, 0, 0, 0, 0]<br/>class = e>, fillcolor="#aae853"] ;
566 -> 567 ;
568 [label=<Day &le; 3.5<br/>gini = 0.432<br/>samples = 32<br/>value = [7, 23, 2, 0, 0, 0]<br/>class = e>, fillcolor="#c0ee80"] ;
566 -> 568 ;
569 [label=<gini = 0.494<br/>samples = 18<br/>value = [4, 12, 2, 0, 0, 0]<br/>class = e>, fillcolor="#c7f08e"] ;
568 -> 569 ;
570 [label=<gini = 0.337<br/>samples = 14<br/>value = [3, 11, 0, 0, 0, 0]<br/>class = e>, fillcolor="#b8ec6f"] ;
568 -> 570 ;
571 [label=<gini = 0.0<br/>samples = 14<br/>value = [0, 14, 0, 0, 0, 0]<br/>class = e>, fillcolor="#9de539"] ;
563 -> 571 ;
572 [label=<Converted_Regist &le; 8.5<br/>gini = 0.134<br/>samples = 390<br/>value = [362, 27, 1, 0, 0, 0]<br/>class = D>, fillcolor="#e78b48"] ;
562 -> 572 ;
573 [label=<Day &le; 4.5<br/>gini = 0.297<br/>samples = 84<br/>value = [69, 14, 1, 0, 0, 0]<br/>class = D>, fillcolor="#eb9c63"] ;
572 -> 573 ;
574 [label=<Day &le; 1.5<br/>gini = 0.34<br/>samples = 66<br/>value = [52, 13, 1, 0, 0, 0]<br/>class = D>, fillcolor="#eca26d"] ;
573 -> 574 ;
575 [label=<gini = 0.391<br/>samples = 15<br/>value = [11, 4, 0, 0, 0, 0]<br/>class = D>, fillcolor="#eeaf81"] ;
574 -> 575 ;
576 [label=<Day &le; 3.5<br/>gini = 0.322<br/>samples = 51<br/>value = [41, 9, 1, 0, 0, 0]<br/>class = D>, fillcolor="#eb9f68"] ;
574 -> 576 ;
577 [label=<Day &le; 2.5<br/>gini = 0.287<br/>samples = 30<br/>value = [25, 4, 1, 0, 0, 0]<br/>class = D>, fillcolor="#ea995f"] ;
576 -> 577 ;
578 [label=<gini = 0.338<br/>samples = 15<br/>value = [12, 2, 1, 0, 0, 0]<br/>class = D>, fillcolor="#eb9e67"] ;
577 -> 578 ;
579 [label=<gini = 0.231<br/>samples = 15<br/>value = [13, 2, 0, 0, 0, 0]<br/>class = D>, fillcolor="#e99457"] ;
577 -> 579 ;
580 [label=<gini = 0.363<br/>samples = 21<br/>value = [16, 5, 0, 0, 0, 0]<br/>class = D>, fillcolor="#eda877"] ;
576 -> 580 ;
581 [label=<gini = 0.105<br/>samples = 18<br/>value = [17, 1, 0, 0, 0, 0]<br/>class = D>, fillcolor="#e78845"] ;
573 -> 581 ;
582 [label=<Converted_Regist &le; 9.5<br/>gini = 0.081<br/>samples = 306<br/>value = [293, 13, 0, 0, 0, 0]<br/>class = D>, fillcolor="#e68742"] ;
572 -> 582 ;
583 [label=<Day &le; 1.5<br/>gini = 0.119<br/>samples = 79<br/>value = [74, 5, 0, 0, 0, 0]<br/>class = D>, fillcolor="#e78a46"] ;
582 -> 583 ;
584 [label=<gini = 0.231<br/>samples = 15<br/>value = [13, 2, 0, 0, 0, 0]<br/>class = D>, fillcolor="#e99457"] ;
583 -> 584 ;
585 [label=<Day &le; 4.5<br/>gini = 0.089<br/>samples = 64<br/>value = [61, 3, 0, 0, 0, 0]<br/>class = D>, fillcolor="#e68743"] ;
583 -> 585 ;
586 [label=<Day &le; 2.5<br/>gini = 0.115<br/>samples = 49<br/>value = [46, 3, 0, 0, 0, 0]<br/>class = D>, fillcolor="#e78946"] ;
585 -> 586 ;
587 [label=<gini = 0.124<br/>samples = 15<br/>value = [14, 1, 0, 0, 0, 0]<br/>class = D>, fillcolor="#e78a47"] ;
586 -> 587 ;
588 [label=<Day &le; 3.5<br/>gini = 0.111<br/>samples = 34<br/>value = [32, 2, 0, 0, 0, 0]<br/>class = D>, fillcolor="#e78945"] ;
586 -> 588 ;
589 [label=<gini = 0.1<br/>samples = 19<br/>value = [18, 1, 0, 0, 0, 0]<br/>class = D>, fillcolor="#e68844"] ;
588 -> 589 ;
590 [label=<gini = 0.124<br/>samples = 15<br/>value = [14, 1, 0, 0, 0, 0]<br/>class = D>, fillcolor="#e78a47"] ;
588 -> 590 ;
591 [label=<gini = 0.0<br/>samples = 15<br/>value = [15, 0, 0, 0, 0, 0]<br/>class = D>, fillcolor="#e58139"] ;
585 -> 591 ;
592 [label=<Converted_Regist &le; 11.5<br/>gini = 0.068<br/>samples = 227<br/>value = [219, 8, 0, 0, 0, 0]<br/>class = D>, fillcolor="#e68640"] ;
582 -> 592 ;
593 [label=<Day &le; 2.5<br/>gini = 0.052<br/>samples = 150<br/>value = [146, 4, 0, 0, 0, 0]<br/>class = D>, fillcolor="#e6843e"] ;
592 -> 593 ;
594 [label=<Converted_Regist &le; 10.5<br/>gini = 0.094<br/>samples = 61<br/>value = [58, 3, 0, 0, 0, 0]<br/>class = D>, fillcolor="#e68843"] ;
593 -> 594 ;
595 [label=<Day &le; 1.5<br/>gini = 0.17<br/>samples = 32<br/>value = [29, 3, 0, 0, 0, 0]<br/>class = D>, fillcolor="#e88e4d"] ;
594 -> 595 ;
596 [label=<gini = 0.208<br/>samples = 17<br/>value = [15, 2, 0, 0, 0, 0]<br/>class = D>, fillcolor="#e89253"] ;
595 -> 596 ;
597 [label=<gini = 0.124<br/>samples = 15<br/>value = [14, 1, 0, 0, 0, 0]<br/>class = D>, fillcolor="#e78a47"] ;
595 -> 597 ;
598 [label=<gini = 0.0<br/>samples = 29<br/>value = [29, 0, 0, 0, 0, 0]<br/>class = D>, fillcolor="#e58139"] ;
594 -> 598 ;
599 [label=<Converted_Regist &le; 10.5<br/>gini = 0.022<br/>samples = 89<br/>value = [88, 1, 0, 0, 0, 0]<br/>class = D>, fillcolor="#e5823b"] ;
593 -> 599 ;
600 [label=<gini = 0.0<br/>samples = 45<br/>value = [45, 0, 0, 0, 0, 0]<br/>class = D>, fillcolor="#e58139"] ;
599 -> 600 ;
601 [label=<Day &le; 3.5<br/>gini = 0.044<br/>samples = 44<br/>value = [43, 1, 0, 0, 0, 0]<br/>class = D>, fillcolor="#e6843e"] ;
599 -> 601 ;
602 [label=<gini = 0.0<br/>samples = 17<br/>value = [17, 0, 0, 0, 0, 0]<br/>class = D>, fillcolor="#e58139"] ;
601 -> 602 ;
603 [label=<Day &le; 4.5<br/>gini = 0.071<br/>samples = 27<br/>value = [26, 1, 0, 0, 0, 0]<br/>class = D>, fillcolor="#e68641"] ;
601 -> 603 ;
604 [label=<gini = 0.133<br/>samples = 14<br/>value = [13, 1, 0, 0, 0, 0]<br/>class = D>, fillcolor="#e78b48"] ;
603 -> 604 ;
605 [label=<gini = 0.0<br/>samples = 13<br/>value = [13, 0, 0, 0, 0, 0]<br/>class = D>, fillcolor="#e58139"] ;
603 -> 605 ;
606 [label=<Day &le; 4.5<br/>gini = 0.098<br/>samples = 77<br/>value = [73, 4, 0, 0, 0, 0]<br/>class = D>, fillcolor="#e68844"] ;
592 -> 606 ;
607 [label=<Day &le; 2.5<br/>gini = 0.063<br/>samples = 61<br/>value = [59, 2, 0, 0, 0, 0]<br/>class = D>, fillcolor="#e68540"] ;
606 -> 607 ;
608 [label=<gini = 0.0<br/>samples = 26<br/>value = [26, 0, 0, 0, 0, 0]<br/>class = D>, fillcolor="#e58139"] ;
607 -> 608 ;
609 [label=<Day &le; 3.5<br/>gini = 0.108<br/>samples = 35<br/>value = [33, 2, 0, 0, 0, 0]<br/>class = D>, fillcolor="#e78945"] ;
607 -> 609 ;
610 [label=<gini = 0.219<br/>samples = 16<br/>value = [14, 2, 0, 0, 0, 0]<br/>class = D>, fillcolor="#e99355"] ;
609 -> 610 ;
611 [label=<gini = 0.0<br/>samples = 19<br/>value = [19, 0, 0, 0, 0, 0]<br/>class = D>, fillcolor="#e58139"] ;
609 -> 611 ;
612 [label=<gini = 0.219<br/>samples = 16<br/>value = [14, 2, 0, 0, 0, 0]<br/>class = D>, fillcolor="#e99355"] ;
606 -> 612 ;
613 [label=<Destination &le; 15.5<br/>gini = 0.065<br/>samples = 4586<br/>value = [4431, 146, 9, 0, 0, 0]<br/>class = D>, fillcolor="#e68540"] ;
561 -> 613 ;
614 [label=<Destination &le; 13.0<br/>gini = 0.027<br/>samples = 1383<br/>value = [1364, 18, 1, 0, 0, 0]<br/>class = D>, fillcolor="#e5833c"] ;
613 -> 614 ;
615 [label=<Converted_Regist &le; 10.5<br/>gini = 0.063<br/>samples = 460<br/>value = [445, 15, 0, 0, 0, 0]<br/>class = D>, fillcolor="#e68540"] ;
614 -> 615 ;
616 [label=<Day &le; 2.5<br/>gini = 0.038<br/>samples = 307<br/>value = [301, 6, 0, 0, 0, 0]<br/>class = D>, fillcolor="#e6843d"] ;
615 -> 616 ;
617 [label=<gini = 0.0<br/>samples = 120<br/>value = [120, 0, 0, 0, 0, 0]<br/>class = D>, fillcolor="#e58139"] ;
616 -> 617 ;
618 [label=<Converted_Regist &le; 7.5<br/>gini = 0.062<br/>samples = 187<br/>value = [181, 6, 0, 0, 0, 0]<br/>class = D>, fillcolor="#e68540"] ;
616 -> 618 ;
619 [label=<gini = 0.0<br/>samples = 43<br/>value = [43, 0, 0, 0, 0, 0]<br/>class = D>, fillcolor="#e58139"] ;
618 -> 619 ;
620 [label=<Day &le; 4.5<br/>gini = 0.08<br/>samples = 144<br/>value = [138, 6, 0, 0, 0, 0]<br/>class = D>, fillcolor="#e68642"] ;
618 -> 620 ;
621 [label=<Converted_Regist &le; 8.5<br/>gini = 0.097<br/>samples = 98<br/>value = [93, 5, 0, 0, 0, 0]<br/>class = D>, fillcolor="#e68844"] ;
620 -> 621 ;
622 [label=<Day &le; 3.5<br/>gini = 0.153<br/>samples = 36<br/>value = [33, 3, 0, 0, 0, 0]<br/>class = D>, fillcolor="#e78c4b"] ;
621 -> 622 ;
623 [label=<gini = 0.188<br/>samples = 19<br/>value = [17, 2, 0, 0, 0, 0]<br/>class = D>, fillcolor="#e89050"] ;
622 -> 623 ;
624 [label=<gini = 0.111<br/>samples = 17<br/>value = [16, 1, 0, 0, 0, 0]<br/>class = D>, fillcolor="#e78945"] ;
622 -> 624 ;
625 [label=<Day &le; 3.5<br/>gini = 0.062<br/>samples = 62<br/>value = [60, 2, 0, 0, 0, 0]<br/>class = D>, fillcolor="#e68540"] ;
621 -> 625 ;
626 [label=<gini = 0.0<br/>samples = 25<br/>value = [25, 0, 0, 0, 0, 0]<br/>class = D>, fillcolor="#e58139"] ;
625 -> 626 ;
627 [label=<Converted_Regist &le; 9.5<br/>gini = 0.102<br/>samples = 37<br/>value = [35, 2, 0, 0, 0, 0]<br/>class = D>, fillcolor="#e68844"] ;
625 -> 627 ;
628 [label=<gini = 0.105<br/>samples = 18<br/>value = [17, 1, 0, 0, 0, 0]<br/>class = D>, fillcolor="#e78845"] ;
627 -> 628 ;
629 [label=<gini = 0.1<br/>samples = 19<br/>value = [18, 1, 0, 0, 0, 0]<br/>class = D>, fillcolor="#e68844"] ;
627 -> 629 ;
630 [label=<Converted_Regist &le; 8.5<br/>gini = 0.043<br/>samples = 46<br/>value = [45, 1, 0, 0, 0, 0]<br/>class = D>, fillcolor="#e6843d"] ;
620 -> 630 ;
631 [label=<gini = 0.0<br/>samples = 15<br/>value = [15, 0, 0, 0, 0, 0]<br/>class = D>, fillcolor="#e58139"] ;
630 -> 631 ;
632 [label=<Converted_Regist &le; 9.5<br/>gini = 0.062<br/>samples = 31<br/>value = [30, 1, 0, 0, 0, 0]<br/>class = D>, fillcolor="#e68540"] ;
630 -> 632 ;
633 [label=<gini = 0.095<br/>samples = 20<br/>value = [19, 1, 0, 0, 0, 0]<br/>class = D>, fillcolor="#e68843"] ;
632 -> 633 ;
634 [label=<gini = 0.0<br/>samples = 11<br/>value = [11, 0, 0, 0, 0, 0]<br/>class = D>, fillcolor="#e58139"] ;
632 -> 634 ;
635 [label=<Day &le; 4.5<br/>gini = 0.111<br/>samples = 153<br/>value = [144, 9, 0, 0, 0, 0]<br/>class = D>, fillcolor="#e78945"] ;
615 -> 635 ;
636 [label=<Day &le; 2.5<br/>gini = 0.134<br/>samples = 125<br/>value = [116, 9, 0, 0, 0, 0]<br/>class = D>, fillcolor="#e78b48"] ;
635 -> 636 ;
637 [label=<Day &le; 1.5<br/>gini = 0.163<br/>samples = 56<br/>value = [51, 5, 0, 0, 0, 0]<br/>class = D>, fillcolor="#e88d4c"] ;
636 -> 637 ;
638 [label=<Converted_Regist &le; 11.5<br/>gini = 0.121<br/>samples = 31<br/>value = [29, 2, 0, 0, 0, 0]<br/>class = D>, fillcolor="#e78a47"] ;
637 -> 638 ;
639 [label=<gini = 0.111<br/>samples = 17<br/>value = [16, 1, 0, 0, 0, 0]<br/>class = D>, fillcolor="#e78945"] ;
638 -> 639 ;
640 [label=<gini = 0.133<br/>samples = 14<br/>value = [13, 1, 0, 0, 0, 0]<br/>class = D>, fillcolor="#e78b48"] ;
638 -> 640 ;
641 [label=<Converted_Regist &le; 11.5<br/>gini = 0.211<br/>samples = 25<br/>value = [22, 3, 0, 0, 0, 0]<br/>class = D>, fillcolor="#e99254"] ;
637 -> 641 ;
642 [label=<gini = 0.231<br/>samples = 15<br/>value = [13, 2, 0, 0, 0, 0]<br/>class = D>, fillcolor="#e99457"] ;
641 -> 642 ;
643 [label=<gini = 0.18<br/>samples = 10<br/>value = [9, 1, 0, 0, 0, 0]<br/>class = D>, fillcolor="#e88f4f"] ;
641 -> 643 ;
644 [label=<Converted_Regist &le; 11.5<br/>gini = 0.109<br/>samples = 69<br/>value = [65, 4, 0, 0, 0, 0]<br/>class = D>, fillcolor="#e78945"] ;
636 -> 644 ;
645 [label=<Day &le; 3.5<br/>gini = 0.061<br/>samples = 32<br/>value = [31, 1, 0, 0, 0, 0]<br/>class = D>, fillcolor="#e6853f"] ;
644 -> 645 ;
646 [label=<gini = 0.111<br/>samples = 17<br/>value = [16, 1, 0, 0, 0, 0]<br/>class = D>, fillcolor="#e78945"] ;
645 -> 646 ;
647 [label=<gini = 0.0<br/>samples = 15<br/>value = [15, 0, 0, 0, 0, 0]<br/>class = D>, fillcolor="#e58139"] ;
645 -> 647 ;
648 [label=<Day &le; 3.5<br/>gini = 0.149<br/>samples = 37<br/>value = [34, 3, 0, 0, 0, 0]<br/>class = D>, fillcolor="#e78c4a"] ;
644 -> 648 ;
649 [label=<gini = 0.091<br/>samples = 21<br/>value = [20, 1, 0, 0, 0, 0]<br/>class = D>, fillcolor="#e68743"] ;
648 -> 649 ;
650 [label=<gini = 0.219<br/>samples = 16<br/>value = [14, 2, 0, 0, 0, 0]<br/>class = D>, fillcolor="#e99355"] ;
648 -> 650 ;
651 [label=<gini = 0.0<br/>samples = 28<br/>value = [28, 0, 0, 0, 0, 0]<br/>class = D>, fillcolor="#e58139"] ;
635 -> 651 ;
652 [label=<Converted_Regist &le; 10.5<br/>gini = 0.009<br/>samples = 923<br/>value = [919, 3, 1, 0, 0, 0]<br/>class = D>, fillcolor="#e5823a"] ;
614 -> 652 ;
653 [label=<gini = 0.0<br/>samples = 609<br/>value = [609, 0, 0, 0, 0, 0]<br/>class = D>, fillcolor="#e58139"] ;
652 -> 653 ;
654 [label=<Destination &le; 14.5<br/>gini = 0.025<br/>samples = 314<br/>value = [310, 3, 1, 0, 0, 0]<br/>class = D>, fillcolor="#e5833c"] ;
652 -> 654 ;
655 [label=<gini = 0.0<br/>samples = 154<br/>value = [154, 0, 0, 0, 0, 0]<br/>class = D>, fillcolor="#e58139"] ;
654 -> 655 ;
656 [label=<Day &le; 1.5<br/>gini = 0.049<br/>samples = 160<br/>value = [156, 3, 1, 0, 0, 0]<br/>class = D>, fillcolor="#e6843e"] ;
654 -> 656 ;
657 [label=<gini = 0.0<br/>samples = 36<br/>value = [36, 0, 0, 0, 0, 0]<br/>class = D>, fillcolor="#e58139"] ;
656 -> 657 ;
658 [label=<Day &le; 4.5<br/>gini = 0.063<br/>samples = 124<br/>value = [120, 3, 1, 0, 0, 0]<br/>class = D>, fillcolor="#e68540"] ;
656 -> 658 ;
659 [label=<Converted_Regist &le; 11.5<br/>gini = 0.081<br/>samples = 96<br/>value = [92, 3, 1, 0, 0, 0]<br/>class = D>, fillcolor="#e68642"] ;
658 -> 659 ;
660 [label=<Day &le; 3.5<br/>gini = 0.126<br/>samples = 45<br/>value = [42, 2, 1, 0, 0, 0]<br/>class = D>, fillcolor="#e78a47"] ;
659 -> 660 ;
661 [label=<Day &le; 2.5<br/>gini = 0.067<br/>samples = 29<br/>value = [28, 1, 0, 0, 0, 0]<br/>class = D>, fillcolor="#e68640"] ;
660 -> 661 ;
662 [label=<gini = 0.0<br/>samples = 13<br/>value = [13, 0, 0, 0, 0, 0]<br/>class = D>, fillcolor="#e58139"] ;
661 -> 662 ;
663 [label=<gini = 0.117<br/>samples = 16<br/>value = [15, 1, 0, 0, 0, 0]<br/>class = D>, fillcolor="#e78946"] ;
661 -> 663 ;
664 [label=<gini = 0.227<br/>samples = 16<br/>value = [14, 1, 1, 0, 0, 0]<br/>class = D>, fillcolor="#e89253"] ;
660 -> 664 ;
665 [label=<Day &le; 2.5<br/>gini = 0.038<br/>samples = 51<br/>value = [50, 1, 0, 0, 0, 0]<br/>class = D>, fillcolor="#e6843d"] ;
659 -> 665 ;
666 [label=<gini = 0.133<br/>samples = 14<br/>value = [13, 1, 0, 0, 0, 0]<br/>class = D>, fillcolor="#e78b48"] ;
665 -> 666 ;
667 [label=<gini = 0.0<br/>samples = 37<br/>value = [37, 0, 0, 0, 0, 0]<br/>class = D>, fillcolor="#e58139"] ;
665 -> 667 ;
668 [label=<gini = 0.0<br/>samples = 28<br/>value = [28, 0, 0, 0, 0, 0]<br/>class = D>, fillcolor="#e58139"] ;
658 -> 668 ;
669 [label=<Destination &le; 16.5<br/>gini = 0.082<br/>samples = 3203<br/>value = [3067, 128, 8, 0, 0, 0]<br/>class = D>, fillcolor="#e68742"] ;
613 -> 669 ;
670 [label=<Converted_Regist &le; 7.5<br/>gini = 0.21<br/>samples = 462<br/>value = [407, 55, 0, 0, 0, 0]<br/>class = D>, fillcolor="#e99254"] ;
669 -> 670 ;
671 [label=<Day &le; 3.5<br/>gini = 0.024<br/>samples = 82<br/>value = [81, 1, 0, 0, 0, 0]<br/>class = D>, fillcolor="#e5833b"] ;
670 -> 671 ;
672 [label=<gini = 0.0<br/>samples = 47<br/>value = [47, 0, 0, 0, 0, 0]<br/>class = D>, fillcolor="#e58139"] ;
671 -> 672 ;
673 [label=<Day &le; 4.5<br/>gini = 0.056<br/>samples = 35<br/>value = [34, 1, 0, 0, 0, 0]<br/>class = D>, fillcolor="#e6853f"] ;
671 -> 673 ;
674 [label=<gini = 0.111<br/>samples = 17<br/>value = [16, 1, 0, 0, 0, 0]<br/>class = D>, fillcolor="#e78945"] ;
673 -> 674 ;
675 [label=<gini = 0.0<br/>samples = 18<br/>value = [18, 0, 0, 0, 0, 0]<br/>class = D>, fillcolor="#e58139"] ;
673 -> 675 ;
676 [label=<Day &le; 3.5<br/>gini = 0.244<br/>samples = 380<br/>value = [326, 54, 0, 0, 0, 0]<br/>class = D>, fillcolor="#e9965a"] ;
670 -> 676 ;
677 [label=<Day &le; 2.5<br/>gini = 0.213<br/>samples = 223<br/>value = [196, 27, 0, 0, 0, 0]<br/>class = D>, fillcolor="#e99254"] ;
676 -> 677 ;
678 [label=<Converted_Regist &le; 10.5<br/>gini = 0.245<br/>samples = 147<br/>value = [126, 21, 0, 0, 0, 0]<br/>class = D>, fillcolor="#e9965a"] ;
677 -> 678 ;
679 [label=<Day &le; 1.5<br/>gini = 0.27<br/>samples = 87<br/>value = [73, 14, 0, 0, 0, 0]<br/>class = D>, fillcolor="#ea995f"] ;
678 -> 679 ;
680 [label=<Converted_Regist &le; 9.5<br/>gini = 0.214<br/>samples = 41<br/>value = [36, 5, 0, 0, 0, 0]<br/>class = D>, fillcolor="#e99254"] ;
679 -> 680 ;
681 [label=<Converted_Regist &le; 8.5<br/>gini = 0.133<br/>samples = 28<br/>value = [26, 2, 0, 0, 0, 0]<br/>class = D>, fillcolor="#e78b48"] ;
680 -> 681 ;
682 [label=<gini = 0.153<br/>samples = 12<br/>value = [11, 1, 0, 0, 0, 0]<br/>class = D>, fillcolor="#e78c4b"] ;
681 -> 682 ;
683 [label=<gini = 0.117<br/>samples = 16<br/>value = [15, 1, 0, 0, 0, 0]<br/>class = D>, fillcolor="#e78946"] ;
681 -> 683 ;
684 [label=<gini = 0.355<br/>samples = 13<br/>value = [10, 3, 0, 0, 0, 0]<br/>class = D>, fillcolor="#eda774"] ;
680 -> 684 ;
685 [label=<Converted_Regist &le; 9.5<br/>gini = 0.315<br/>samples = 46<br/>value = [37, 9, 0, 0, 0, 0]<br/>class = D>, fillcolor="#eba069"] ;
679 -> 685 ;
686 [label=<Converted_Regist &le; 8.5<br/>gini = 0.358<br/>samples = 30<br/>value = [23, 7, 0, 0, 0, 0]<br/>class = D>, fillcolor="#eda775"] ;
685 -> 686 ;
687 [label=<gini = 0.305<br/>samples = 16<br/>value = [13, 3, 0, 0, 0, 0]<br/>class = D>, fillcolor="#eb9e67"] ;
686 -> 687 ;
688 [label=<gini = 0.408<br/>samples = 14<br/>value = [10, 4, 0, 0, 0, 0]<br/>class = D>, fillcolor="#efb388"] ;
686 -> 688 ;
689 [label=<gini = 0.219<br/>samples = 16<br/>value = [14, 2, 0, 0, 0, 0]<br/>class = D>, fillcolor="#e99355"] ;
685 -> 689 ;
690 [label=<Converted_Regist &le; 11.5<br/>gini = 0.206<br/>samples = 60<br/>value = [53, 7, 0, 0, 0, 0]<br/>class = D>, fillcolor="#e89253"] ;
678 -> 690 ;
691 [label=<Day &le; 1.5<br/>gini = 0.124<br/>samples = 30<br/>value = [28, 2, 0, 0, 0, 0]<br/>class = D>, fillcolor="#e78a47"] ;
690 -> 691 ;
692 [label=<gini = 0.105<br/>samples = 18<br/>value = [17, 1, 0, 0, 0, 0]<br/>class = D>, fillcolor="#e78845"] ;
691 -> 692 ;
693 [label=<gini = 0.153<br/>samples = 12<br/>value = [11, 1, 0, 0, 0, 0]<br/>class = D>, fillcolor="#e78c4b"] ;
691 -> 693 ;
694 [label=<Day &le; 1.5<br/>gini = 0.278<br/>samples = 30<br/>value = [25, 5, 0, 0, 0, 0]<br/>class = D>, fillcolor="#ea9a61"] ;
690 -> 694 ;
695 [label=<gini = 0.337<br/>samples = 14<br/>value = [11, 3, 0, 0, 0, 0]<br/>class = D>, fillcolor="#eca36f"] ;
694 -> 695 ;
696 [label=<gini = 0.219<br/>samples = 16<br/>value = [14, 2, 0, 0, 0, 0]<br/>class = D>, fillcolor="#e99355"] ;
694 -> 696 ;
697 [label=<Converted_Regist &le; 11.5<br/>gini = 0.145<br/>samples = 76<br/>value = [70, 6, 0, 0, 0, 0]<br/>class = D>, fillcolor="#e78c4a"] ;
677 -> 697 ;
698 [label=<Converted_Regist &le; 10.5<br/>gini = 0.177<br/>samples = 61<br/>value = [55, 6, 0, 0, 0, 0]<br/>class = D>, fillcolor="#e88f4f"] ;
697 -> 698 ;
699 [label=<Converted_Regist &le; 8.5<br/>gini = 0.162<br/>samples = 45<br/>value = [41, 4, 0, 0, 0, 0]<br/>class = D>, fillcolor="#e88d4c"] ;
698 -> 699 ;
700 [label=<gini = 0.208<br/>samples = 17<br/>value = [15, 2, 0, 0, 0, 0]<br/>class = D>, fillcolor="#e89253"] ;
699 -> 700 ;
701 [label=<Converted_Regist &le; 9.5<br/>gini = 0.133<br/>samples = 28<br/>value = [26, 2, 0, 0, 0, 0]<br/>class = D>, fillcolor="#e78b48"] ;
699 -> 701 ;
702 [label=<gini = 0.117<br/>samples = 16<br/>value = [15, 1, 0, 0, 0, 0]<br/>class = D>, fillcolor="#e78946"] ;
701 -> 702 ;
703 [label=<gini = 0.153<br/>samples = 12<br/>value = [11, 1, 0, 0, 0, 0]<br/>class = D>, fillcolor="#e78c4b"] ;
701 -> 703 ;
704 [label=<gini = 0.219<br/>samples = 16<br/>value = [14, 2, 0, 0, 0, 0]<br/>class = D>, fillcolor="#e99355"] ;
698 -> 704 ;
705 [label=<gini = 0.0<br/>samples = 15<br/>value = [15, 0, 0, 0, 0, 0]<br/>class = D>, fillcolor="#e58139"] ;
697 -> 705 ;
706 [label=<Converted_Regist &le; 9.5<br/>gini = 0.285<br/>samples = 157<br/>value = [130, 27, 0, 0, 0, 0]<br/>class = D>, fillcolor="#ea9b62"] ;
676 -> 706 ;
707 [label=<Converted_Regist &le; 8.5<br/>gini = 0.358<br/>samples = 60<br/>value = [46, 14, 0, 0, 0, 0]<br/>class = D>, fillcolor="#eda775"] ;
706 -> 707 ;
708 [label=<Day &le; 4.5<br/>gini = 0.383<br/>samples = 31<br/>value = [23, 8, 0, 0, 0, 0]<br/>class = D>, fillcolor="#eead7e"] ;
707 -> 708 ;
709 [label=<gini = 0.278<br/>samples = 12<br/>value = [10, 2, 0, 0, 0, 0]<br/>class = D>, fillcolor="#ea9a61"] ;
708 -> 709 ;
710 [label=<gini = 0.432<br/>samples = 19<br/>value = [13, 6, 0, 0, 0, 0]<br/>class = D>, fillcolor="#f1bb94"] ;
708 -> 710 ;
711 [label=<Day &le; 4.5<br/>gini = 0.328<br/>samples = 29<br/>value = [23, 6, 0, 0, 0, 0]<br/>class = D>, fillcolor="#eca26d"] ;
707 -> 711 ;
712 [label=<gini = 0.43<br/>samples = 16<br/>value = [11, 5, 0, 0, 0, 0]<br/>class = D>, fillcolor="#f1ba93"] ;
711 -> 712 ;
713 [label=<gini = 0.142<br/>samples = 13<br/>value = [12, 1, 0, 0, 0, 0]<br/>class = D>, fillcolor="#e78c49"] ;
711 -> 713 ;
714 [label=<Converted_Regist &le; 11.5<br/>gini = 0.232<br/>samples = 97<br/>value = [84, 13, 0, 0, 0, 0]<br/>class = D>, fillcolor="#e99458"] ;
706 -> 714 ;
715 [label=<Day &le; 4.5<br/>gini = 0.213<br/>samples = 66<br/>value = [58, 8, 0, 0, 0, 0]<br/>class = D>, fillcolor="#e99254"] ;
714 -> 715 ;
716 [label=<Converted_Regist &le; 10.5<br/>gini = 0.245<br/>samples = 35<br/>value = [30, 5, 0, 0, 0, 0]<br/>class = D>, fillcolor="#e9965a"] ;
715 -> 716 ;
717 [label=<gini = 0.278<br/>samples = 18<br/>value = [15, 3, 0, 0, 0, 0]<br/>class = D>, fillcolor="#ea9a61"] ;
716 -> 717 ;
718 [label=<gini = 0.208<br/>samples = 17<br/>value = [15, 2, 0, 0, 0, 0]<br/>class = D>, fillcolor="#e89253"] ;
716 -> 718 ;
719 [label=<Converted_Regist &le; 10.5<br/>gini = 0.175<br/>samples = 31<br/>value = [28, 3, 0, 0, 0, 0]<br/>class = D>, fillcolor="#e88e4e"] ;
715 -> 719 ;
720 [label=<gini = 0.124<br/>samples = 15<br/>value = [14, 1, 0, 0, 0, 0]<br/>class = D>, fillcolor="#e78a47"] ;
719 -> 720 ;
721 [label=<gini = 0.219<br/>samples = 16<br/>value = [14, 2, 0, 0, 0, 0]<br/>class = D>, fillcolor="#e99355"] ;
719 -> 721 ;
722 [label=<Day &le; 4.5<br/>gini = 0.271<br/>samples = 31<br/>value = [26, 5, 0, 0, 0, 0]<br/>class = D>, fillcolor="#ea995f"] ;
714 -> 722 ;
723 [label=<gini = 0.208<br/>samples = 17<br/>value = [15, 2, 0, 0, 0, 0]<br/>class = D>, fillcolor="#e89253"] ;
722 -> 723 ;
724 [label=<gini = 0.337<br/>samples = 14<br/>value = [11, 3, 0, 0, 0, 0]<br/>class = D>, fillcolor="#eca36f"] ;
722 -> 724 ;
725 [label=<Destination &le; 21.5<br/>gini = 0.058<br/>samples = 2741<br/>value = [2660, 73, 8, 0, 0, 0]<br/>class = D>, fillcolor="#e6853f"] ;
669 -> 725 ;
